{"learner":{"attributes":{"scikit_learn":"{\"_estimator_type\": \"classifier\"}"},"feature_names":[],"feature_types":[],"gradient_booster":{"model":{"cats":{"enc":[],"feature_segments":[],"sorted_idx":[]},"gbtree_model_param":{"num_parallel_tree":"1","num_trees":"100"},"iteration_indptr":[0,1,2,3,4,5,6,7,8,9,10,11,12,13,14,15,16,17,18,19,20,21,22,23,24,25,26,27,28,29,30,31,32,33,34,35,36,37,38,39,40,41,42,43,44,45,46,47,48,49,50,51,52,53,54,55,56,57,58,59,60,61,62,63,64,65,66,67,68,69,70,71,72,73,74,75,76,77,78,79,80,81,82,83,84,85,86,87,88,89,90,91,92,93,94,95,96,97,98,99,100],"tree_info":[0,0,0,0,0,0,0,0,0,0,0,0,0,0,0,0,0,0,0,0,0,0,0,0,0,0,0,0,0,0,0,0,0,0,0,0,0,0,0,0,0,0,0,0,0,0,0,0,0,0,0,0,0,0,0,0,0,0,0,0,0,0,0,0,0,0,0,0,0,0,0,0,0,0,0,0,0,0,0,0,0,0,0,0,0,0,0,0,0,0,0,0,0,0,0,0,0,0,0,0],"trees":[{"base_weights":[2.0816644E-8,-1.5970701E-1,6.642269E-2,-3.4058103E-1,-7.4859984E-2,4.6513155E-1,5.4294515E-2,3.4985943E-3,-3.7711507E-3,-1.3909912E-4,-3.7474786E-3,6.316436E-3,-2.9588353E-3,6.0381286E-4,-6.415206E-3],"categories":[],"categories_nodes":[],"categories_segments":[],"categories_sizes":[],"default_left":[0,0,0,0,0,0,0,0,0,0,0,0,0,0,0],"id":0,"left_children":[1,3,5,7,9,11,13,-1,-1,-1,-1,-1,-1,-1,-1],"loss_changes":[3.023328E1,1.2821936E1,9.708104E0,6.8676033E0,1.0433879E1,7.6998215E0,8.316828E0,0E0,0E0,0E0,0E0,0E0,0E0,0E0,0E0],"parents":[2147483647,0,0,1,1,2,2,3,3,4,4,5,5,6,6],"right_children":[2,4,6,8,10,12,14,-1,-1,-1,-1,-1,-1,-1,-1],"split_conditions":[-8.160919E-1,-4.0452334E-1,-6.453094E-1,-7.5394756E-1,-6.863399E-1,1.5506806E0,4.226847E0,3.4985943E-3,-3.7711507E-3,-1.3909912E-4,-3.7474786E-3,6.316436E-3,-2.9588353E-3,6.0381286E-4,-6.415206E-3],"split_indices":[19,32,16,15,16,12,28,0,0,0,0,0,0,0,0],"split_type":[0,0,0,0,0,0,0,0,0,0,0,0,0,0,0],"sum_hessian":[2.848E3,8.361506E2,2.0118495E3,2.660277E2,5.7012286E2,5.8288467E1,1.9535609E3,1.2938207E1,2.5308951E2,4.746916E2,9.543129E1,4.7963852E1,1.0324616E1,1.9375253E3,1.6035643E1],"tree_param":{"num_deleted":"0","num_feature":"35","num_nodes":"15","size_leaf_vector":"1"}},{"base_weights":[-2.3759656E-6,-1.5811512E-1,6.575715E-2,-3.2459554E-1,-6.774425E-2,4.6054074E-1,5.374848E-2,2.9374845E-3,-3.557847E-3,3.9342234E-5,-3.6725383E-3,6.2546227E-3,-2.9318666E-3,5.9777667E-4,-6.35488E-3],"categories":[],"categories_nodes":[],"categories_segments":[],"categories_sizes":[],"default_left":[0,0,0,0,0,0,0,0,0,0,0,0,0,0,0],"id":1,"left_children":[1,3,5,7,9,11,13,-1,-1,-1,-1,-1,-1,-1,-1],"loss_changes":[2.9632622E1,1.2572903E1,9.517811E0,5.7798862E0,1.1677446E1,7.5532207E0,8.160231E0,0E0,0E0,0E0,0E0,0E0,0E0,0E0,0E0],"parents":[2147483647,0,0,1,1,2,2,3,3,4,4,5,5,6,6],"right_children":[2,4,6,8,10,12,14,-1,-1,-1,-1,-1,-1,-1,-1],"split_conditions":[-8.160919E-1,-3.7786973E-1,-6.453094E-1,-7.5394756E-1,-6.868134E-1,1.5506806E0,4.226847E0,2.9374845E-3,-3.557847E-3,3.9342234E-5,-3.6725383E-3,6.2546227E-3,-2.9318666E-3,5.9777667E-4,-6.35488E-3],"split_indices":[19,32,16,15,16,12,28,0,0,0,0,0,0,0,0],"split_type":[0,0,0,0,0,0,0,0,0,0,0,0,0,0,0],"sum_hessian":[2.8479978E3,8.361493E2,2.0118485E3,2.9327985E2,5.4286945E2,5.828797E1,1.9535605E3,1.3678424E1,2.796014E2,4.3883466E2,1.040348E2,4.7963375E1,1.0324594E1,1.9375251E3,1.6035479E1],"tree_param":{"num_deleted":"0","num_feature":"35","num_nodes":"15","size_leaf_vector":"1"}},{"base_weights":[-4.6599293E-6,-1.5653983E-1,6.509855E-2,-3.3395085E-1,-7.331835E-2,5.0589514E-1,5.451608E-2,3.438884E-3,-3.6981988E-3,-1.3547124E-4,-3.6741092E-3,-8.209825E-4,7.0979004E-3,7.0176966E-4,-2.3048858E-3],"categories":[],"categories_nodes":[],"categories_segments":[],"categories_sizes":[],"default_left":[0,0,0,0,0,0,0,0,0,0,0,0,0,0,0],"id":2,"left_children":[1,3,5,7,9,11,13,-1,-1,-1,-1,-1,-1,-1,-1],"loss_changes":[2.9044096E1,1.2335476E1,9.361773E0,6.6194534E0,1.0034351E1,5.7014294E0,8.794736E0,0E0,0E0,0E0,0E0,0E0,0E0,0E0,0E0],"parents":[2147483647,0,0,1,1,2,2,3,3,4,4,5,5,6,6],"right_children":[2,4,6,8,10,12,14,-1,-1,-1,-1,-1,-1,-1,-1],"split_conditions":[-8.160919E-1,-4.0452334E-1,-7.996907E-1,-7.5394756E-1,-6.863399E-1,-9.2245005E-2,1.099402E0,3.438884E-3,-3.6981988E-3,-1.3547124E-4,-3.6741092E-3,-8.209825E-4,7.0979004E-3,7.0176966E-4,-2.3048858E-3],"split_indices":[19,32,13,15,16,28,15,0,0,0,0,0,0,0,0],"split_type":[0,0,0,0,0,0,0,0,0,0,0,0,0,0,0],"sum_hessian":[2.8479917E3,8.361456E2,2.0118461E3,2.660242E2,5.7012146E2,4.606989E1,1.9657762E3,1.2938072E1,2.5308612E2,4.7469147E2,9.542998E1,1.2015853E1,3.4054035E1,1.8640985E3,1.0167767E2],"tree_param":{"num_deleted":"0","num_feature":"35","num_nodes":"15","size_leaf_vector":"1"}},{"base_weights":[-4.5023216E-6,-1.549804E-1,6.444981E-2,-3.183056E-1,-6.6324286E-2,4.53018E-1,5.2630853E-2,-7.843523E-3,-2.7594422E-3,4.0298703E-5,-3.6030908E-3,6.1631976E-3,-2.9300733E-3,4.0390796E-4,3.9227735E-3],"categories":[],"categories_nodes":[],"categories_segments":[],"categories_sizes":[],"default_left":[0,0,0,0,0,0,0,0,0,0,0,0,0,0,0],"id":3,"left_children":[1,3,5,7,9,11,13,-1,-1,-1,-1,-1,-1,-1,-1],"loss_changes":[2.8468098E1,1.2100483E1,9.22008E0,5.5932083E0,1.1250278E1,7.4031515E0,8.109825E0,0E0,0E0,0E0,0E0,0E0,0E0,0E0,0E0],"parents":[2147483647,0,0,1,1,2,2,3,3,4,4,5,5,6,6],"right_children":[2,4,6,8,10,12,14,-1,-1,-1,-1,-1,-1,-1,-1],"split_conditions":[-8.160919E-1,-3.7786973E-1,-6.453094E-1,-7.112946E-1,-6.868134E-1,1.5506806E0,2.401627E0,-7.843523E-3,-2.7594422E-3,4.0298703E-5,-3.6030908E-3,6.1631976E-3,-2.9300733E-3,4.0390796E-4,3.9227735E-3],"split_indices":[19,32,16,16,16,12,11,0,0,0,0,0,0,0,0],"split_type":[0,0,0,0,0,0,0,0,0,0,0,0,0,0,0],"sum_hessian":[2.8479834E3,8.361395E2,2.0118438E3,2.9327267E2,5.428669E2,5.828531E1,1.9535585E3,2.2976513E1,2.7029617E2,4.3883466E2,1.040322E2,4.7960766E1,1.0324543E1,1.8866857E3,6.687277E1],"tree_param":{"num_deleted":"0","num_feature":"35","num_nodes":"15","size_leaf_vector":"1"}},{"base_weights":[-6.5897366E-6,-1.5344886E-1,6.380944E-2,-3.2745647E-1,-7.182637E-2,4.9758962E-1,5.339618E-2,3.4334594E-3,-3.6296633E-3,-1.3213351E-4,-3.6023222E-3,-8.507965E-4,6.9975476E-3,6.889038E-4,-2.2856954E-3],"categories":[],"categories_nodes":[],"categories_segments":[],"categories_sizes":[],"default_left":[0,0,0,0,0,0,0,0,0,0,0,0,0,0,0],"id":4,"left_children":[1,3,5,7,9,11,13,-1,-1,-1,-1,-1,-1,-1,-1],"loss_changes":[2.7907143E1,1.1866209E1,9.065558E0,6.4849358E0,9.6496E0,5.6038017E0,8.608246E0,0E0,0E0,0E0,0E0,0E0,0E0,0E0,0E0],"parents":[2147483647,0,0,1,1,2,2,3,3,4,4,5,5,6,6],"right_children":[2,4,6,8,10,12,14,-1,-1,-1,-1,-1,-1,-1,-1],"split_conditions":[-8.160919E-1,-4.0452334E-1,-7.996907E-1,-7.5394756E-1,-6.863399E-1,-9.2245005E-2,1.099402E0,3.4334594E-3,-3.6296633E-3,-1.3213351E-4,-3.6023222E-3,-8.507965E-4,6.9975476E-3,6.889038E-4,-2.2856954E-3],"split_indices":[19,32,13,15,16,28,15,0,0,0,0,0,0,0,0],"split_type":[0,0,0,0,0,0,0,0,0,0,0,0,0,0,0],"sum_hessian":[2.8479717E3,8.361319E2,2.0118397E3,2.6601462E2,5.701173E2,4.6066925E1,1.9657728E3,1.29380455E1,2.5307657E2,4.7469116E2,9.542615E1,1.2015544E1,3.4051384E1,1.8640953E3,1.0167754E2],"tree_param":{"num_deleted":"0","num_feature":"35","num_nodes":"15","size_leaf_vector":"1"}},{"base_weights":[-6.356653E-6,-1.5192097E-1,6.317369E-2,-3.1217805E-1,-6.493355E-2,4.4563654E-1,5.1541537E-2,-7.7364156E-3,-2.7024623E-3,4.1216965E-5,-3.535063E-3,6.07346E-3,-2.9279238E-3,5.749965E-4,-6.294983E-3],"categories":[],"categories_nodes":[],"categories_segments":[],"categories_sizes":[],"default_left":[0,0,0,0,0,0,0,0,0,0,0,0,0,0,0],"id":5,"left_children":[1,3,5,7,9,11,13,-1,-1,-1,-1,-1,-1,-1,-1],"loss_changes":[2.7353806E1,1.1649494E1,8.931863E0,5.4848576E0,1.0839242E1,7.2565403E0,7.967224E0,0E0,0E0,0E0,0E0,0E0,0E0,0E0,0E0],"parents":[2147483647,0,0,1,1,2,2,3,3,4,4,5,5,6,6],"right_children":[2,4,6,8,10,12,14,-1,-1,-1,-1,-1,-1,-1,-1],"split_conditions":[-8.160919E-1,-3.7786973E-1,-6.453094E-1,-7.112946E-1,-6.868134E-1,1.5506806E0,4.226847E0,-7.7364156E-3,-2.7024623E-3,4.1216965E-5,-3.535063E-3,6.07346E-3,-2.9279238E-3,5.749965E-4,-6.294983E-3],"split_indices":[19,32,16,16,16,12,28,0,0,0,0,0,0,0,0],"split_type":[0,0,0,0,0,0,0,0,0,0,0,0,0,0,0],"sum_hessian":[2.8479565E3,8.361215E2,2.0118351E3,2.932598E2,5.4286176E2,5.8280266E1,1.9535548E3,2.2974401E1,2.7028537E2,4.3883466E2,1.040271E2,4.7955868E1,1.03244E1,1.9375199E3,1.603494E1],"tree_param":{"num_deleted":"0","num_feature":"35","num_nodes":"15","size_leaf_vector":"1"}},{"base_weights":[-1.2138062E-5,-1.5042056E-1,6.2540814E-2,-3.091005E-1,-6.4291075E-2,4.894249E-1,5.22943E-2,2.9039793E-3,-3.3936175E-3,4.0805757E-5,-3.500167E-3,-8.8039757E-4,6.8991017E-3,6.760873E-4,-2.2639632E-3],"categories":[],"categories_nodes":[],"categories_segments":[],"categories_sizes":[],"default_left":[0,0,0,0,0,0,0,0,0,0,0,0,0,0,0],"id":6,"left_children":[1,3,5,7,9,11,13,-1,-1,-1,-1,-1,-1,-1,-1],"loss_changes":[2.681362E1,1.1420925E1,8.778669E0,5.4367294E0,1.0625989E1,5.509241E0,8.409443E0,0E0,0E0,0E0,0E0,0E0,0E0,0E0,0E0],"parents":[2147483647,0,0,1,1,2,2,3,3,4,4,5,5,6,6],"right_children":[2,4,6,8,10,12,14,-1,-1,-1,-1,-1,-1,-1,-1],"split_conditions":[-8.160919E-1,-3.7786973E-1,-7.996907E-1,-7.5394756E-1,-6.868134E-1,-9.2245005E-2,1.099402E0,2.9039793E-3,-3.3936175E-3,4.0805757E-5,-3.500167E-3,-8.8039757E-4,6.8991017E-3,6.760873E-4,-2.2639632E-3],"split_indices":[19,32,13,15,16,28,15,0,0,0,0,0,0,0,0],"split_type":[0,0,0,0,0,0,0,0,0,0,0,0,0,0,0],"sum_hessian":[2.8479382E3,8.3610974E2,2.0118285E3,2.932515E2,5.428582E2,4.6061886E1,1.9657666E3,1.3678256E1,2.7957324E2,4.3883466E2,1.0402358E2,1.2015137E1,3.404675E1,1.8640897E3,1.01676865E2],"tree_param":{"num_deleted":"0","num_feature":"35","num_nodes":"15","size_leaf_vector":"1"}},{"base_weights":[-1.1760325E-5,-1.4892374E-1,6.191797E-2,-3.1803086E-1,-6.960623E-2,4.3839234E-1,5.0469466E-2,3.400638E-3,-3.528836E-3,-1.2678113E-4,-3.4975188E-3,5.985362E-3,-2.9254344E-3,3.8353572E-4,3.8669747E-3],"categories":[],"categories_nodes":[],"categories_segments":[],"categories_sizes":[],"default_left":[0,0,0,0,0,0,0,0,0,0,0,0,0,0,0],"id":7,"left_children":[1,3,5,7,9,11,13,-1,-1,-1,-1,-1,-1,-1,-1],"loss_changes":[2.6282158E1,1.120595E1,8.653277E0,6.243778E0,9.103658E0,7.113287E0,7.947418E0,0E0,0E0,0E0,0E0,0E0,0E0,0E0,0E0],"parents":[2147483647,0,0,1,1,2,2,3,3,4,4,5,5,6,6],"right_children":[2,4,6,8,10,12,14,-1,-1,-1,-1,-1,-1,-1,-1],"split_conditions":[-8.160919E-1,-4.0452334E-1,-6.453094E-1,-7.5394756E-1,-6.863399E-1,1.5506806E0,2.401627E0,3.400638E-3,-3.528836E-3,-1.2678113E-4,-3.4975188E-3,5.985362E-3,-2.9254344E-3,3.8353572E-4,3.8669747E-3],"split_indices":[19,32,16,15,16,12,11,0,0,0,0,0,0,0,0],"split_type":[0,0,0,0,0,0,0,0,0,0,0,0,0,0,0],"sum_hessian":[2.8479167E3,8.3609515E2,2.0118217E3,2.6598923E2,5.7010596E2,5.8272957E1,1.9535487E3,1.29378395E1,2.5305138E2,4.7468994E2,9.5416E1,4.7948788E1,1.0324167E1,1.8866769E3,6.687185E1],"tree_param":{"num_deleted":"0","num_feature":"35","num_nodes":"15","size_leaf_vector":"1"}},{"base_weights":[-1.0461084E-5,-1.4744191E-1,6.1302584E-2,-3.0312636E-1,-6.294368E-2,4.8142913E-1,5.121985E-2,-7.6008746E-3,-2.6163E-3,4.1663363E-5,-3.4342143E-3,-9.085675E-4,6.8024807E-3,6.637121E-4,-2.2449868E-3],"categories":[],"categories_nodes":[],"categories_segments":[],"categories_sizes":[],"default_left":[0,0,0,0,0,0,0,0,0,0,0,0,0,0,0],"id":8,"left_children":[1,3,5,7,9,11,13,-1,-1,-1,-1,-1,-1,-1,-1],"loss_changes":[2.576152E1,1.0992741E1,8.50167E0,5.3803787E0,1.0238239E1,5.4157705E0,8.231057E0,0E0,0E0,0E0,0E0,0E0,0E0,0E0,0E0],"parents":[2147483647,0,0,1,1,2,2,3,3,4,4,5,5,6,6],"right_children":[2,4,6,8,10,12,14,-1,-1,-1,-1,-1,-1,-1,-1],"split_conditions":[-8.160919E-1,-3.7786973E-1,-7.996907E-1,-7.112946E-1,-6.868134E-1,-9.2245005E-2,1.099402E0,-7.6008746E-3,-2.6163E-3,4.1663363E-5,-3.4342143E-3,-9.085675E-4,6.8024807E-3,6.637121E-4,-2.2449868E-3],"split_indices":[19,32,13,16,16,28,15,0,0,0,0,0,0,0,0],"split_type":[0,0,0,0,0,0,0,0,0,0,0,0,0,0,0],"sum_hessian":[2.8478923E3,8.360787E2,2.0118137E3,2.9322906E2,5.428497E2,4.6054886E1,1.9657588E3,2.296957E1,2.702595E2,4.3883466E2,1.0401499E2,1.2014639E1,3.404025E1,1.8640825E3,1.01676285E2],"tree_param":{"num_deleted":"0","num_feature":"35","num_nodes":"15","size_leaf_vector":"1"}},{"base_weights":[-1.3651414E-5,-1.4598684E-1,6.069193E-2,-3.747875E-1,-8.944631E-2,4.3128213E-1,4.9424246E-2,3.9412226E-3,-4.216426E-3,-7.5069774E-4,-8.9917695E-3,5.8988594E-3,-2.9226108E-3,3.742838E-4,3.8233565E-3],"categories":[],"categories_nodes":[],"categories_segments":[],"categories_sizes":[],"default_left":[0,0,0,0,0,0,0,0,0,0,0,0,0,0,0],"id":9,"left_children":[1,3,5,7,9,11,13,-1,-1,-1,-1,-1,-1,-1,-1],"loss_changes":[2.5253763E1,1.0795124E1,8.383541E0,6.1305294E0,7.7612777E0,6.973282E0,7.79127E0,0E0,0E0,0E0,0E0,0E0,0E0,0E0,0E0],"parents":[2147483647,0,0,1,1,2,2,3,3,4,4,5,5,6,6],"right_children":[2,4,6,8,10,12,14,-1,-1,-1,-1,-1,-1,-1,-1],"split_conditions":[-8.160919E-1,-5.114052E-1,-6.453094E-1,-7.5394756E-1,-8.1769055E-1,1.5506806E0,2.401627E0,3.9412226E-3,-4.216426E-3,-7.5069774E-4,-8.9917695E-3,5.8988594E-3,-2.9226108E-3,3.742838E-4,3.8233565E-3],"split_indices":[19,32,16,15,6,12,11,0,0,0,0,0,0,0,0],"split_type":[0,0,0,0,0,0,0,0,0,0,0,0,0,0,0],"sum_hessian":[2.847866E3,8.360611E2,2.0118049E3,1.6455066E2,6.7151044E2,5.8263474E1,1.9535414E3,9.025605E0,1.5552505E2,6.608696E2,1.0640845E1,4.7939625E1,1.0323847E1,1.886671E3,6.6870384E1],"tree_param":{"num_deleted":"0","num_feature":"35","num_nodes":"15","size_leaf_vector":"1"}},{"base_weights":[-1.439428E-5,-1.4333178E-1,6.0603037E-2,-2.9957157E-1,-5.9228484E-2,6.0422754E-1,5.0410654E-2,-7.4980007E-3,-2.5898372E-3,7.9040976E-5,-3.2483488E-3,1.0667281E-2,3.6168455E-3,6.515746E-4,-2.1732596E-3],"categories":[],"categories_nodes":[],"categories_segments":[],"categories_sizes":[],"default_left":[0,0,0,0,0,0,0,0,0,0,0,0,0,0,0],"id":10,"left_children":[1,3,5,7,9,11,13,-1,-1,-1,-1,-1,-1,-1,-1],"loss_changes":[2.4758083E1,1.1113186E1,1.1066471E1,5.2180386E0,9.843596E0,3.738618E0,7.780344E0,0E0,0E0,0E0,0E0,0E0,0E0,0E0,0E0],"parents":[2147483647,0,0,1,1,2,2,3,3,4,4,5,5,6,6],"right_children":[2,4,6,8,10,12,14,-1,-1,-1,-1,-1,-1,-1,-1],"split_conditions":[-8.140509E-1,-3.7786973E-1,-7.996907E-1,-7.112946E-1,-6.868134E-1,3.28375E-2,1.099402E0,-7.4980007E-3,-2.5898372E-3,7.9040976E-5,-3.2483488E-3,1.0667281E-2,3.6168455E-3,6.515746E-4,-2.1732596E-3],"split_indices":[20,32,13,16,16,29,15,0,0,0,0,0,0,0,0],"split_type":[0,0,0,0,0,0,0,0,0,0,0,0,0,0,0],"sum_hessian":[2.8478408E3,8.460845E2,2.0017565E3,2.95174E2,5.5091046E2,3.5767475E1,1.965989E3,2.2964308E1,2.722097E2,4.4053464E2,1.1037582E2,1.1135432E1,2.4632044E1,1.8640734E3,1.0191564E2],"tree_param":{"num_deleted":"0","num_feature":"35","num_nodes":"15","size_leaf_vector":"1"}},{"base_weights":[-1.4618569E-5,-1.4314146E-1,5.950527E-2,-3.062926E-1,-6.6630185E-2,4.25434E-1,4.838123E-2,3.3957034E-3,-3.4052704E-3,-1.1419745E-4,-3.383795E-3,5.8239596E-3,-2.9038896E-3,5.426164E-4,-6.2366226E-3],"categories":[],"categories_nodes":[],"categories_segments":[],"categories_sizes":[],"default_left":[0,0,0,0,0,0,0,0,0,0,0,0,0,0,0],"id":11,"left_children":[1,3,5,7,9,11,13,-1,-1,-1,-1,-1,-1,-1,-1],"loss_changes":[2.4277245E1,1.0428099E1,8.172678E0,6.0178623E0,8.564373E0,6.8267374E0,7.7579384E0,0E0,0E0,0E0,0E0,0E0,0E0,0E0,0E0],"parents":[2147483647,0,0,1,1,2,2,3,3,4,4,5,5,6,6],"right_children":[2,4,6,8,10,12,14,-1,-1,-1,-1,-1,-1,-1,-1],"split_conditions":[-8.160919E-1,-4.0452334E-1,-6.453094E-1,-7.5394756E-1,-6.863399E-1,1.5506806E0,4.226847E0,3.3957034E-3,-3.4052704E-3,-1.1419745E-4,-3.383795E-3,5.8239596E-3,-2.9038896E-3,5.426164E-4,-6.2366226E-3],"split_indices":[19,32,16,15,16,12,28,0,0,0,0,0,0,0,0],"split_type":[0,0,0,0,0,0,0,0,0,0,0,0,0,0,0],"sum_hessian":[2.847812E3,8.360255E2,2.0117865E3,2.6593906E2,5.700864E2,5.825414E1,1.9535323E3,1.2937774E1,2.5300128E2,4.7468768E2,9.539876E1,4.793057E1,1.0323572E1,1.9374984E3,1.6033932E1],"tree_param":{"num_deleted":"0","num_feature":"35","num_nodes":"15","size_leaf_vector":"1"}},{"base_weights":[-1.6499833E-5,-1.4057517E-1,5.9431564E-2,-2.938987E-1,-5.804884E-2,5.9602696E-1,4.937315E-2,-7.3975753E-3,-2.5372175E-3,7.921354E-5,-3.1908639E-3,1.0545749E-2,3.5568844E-3,6.394762E-4,-2.1523263E-3],"categories":[],"categories_nodes":[],"categories_segments":[],"categories_sizes":[],"default_left":[0,0,0,0,0,0,0,0,0,0,0,0,0,0,0],"id":12,"left_children":[1,3,5,7,9,11,13,-1,-1,-1,-1,-1,-1,-1,-1],"loss_changes":[2.3812567E1,1.0700729E1,1.0779943E1,5.1171722E0,9.506595E0,3.6760988E0,7.5993876E0,0E0,0E0,0E0,0E0,0E0,0E0,0E0,0E0],"parents":[2147483647,0,0,1,1,2,2,3,3,4,4,5,5,6,6],"right_children":[2,4,6,8,10,12,14,-1,-1,-1,-1,-1,-1,-1,-1],"split_conditions":[-8.140509E-1,-3.7786973E-1,-7.996907E-1,-7.112946E-1,-6.868134E-1,3.28375E-2,1.099402E0,-7.3975753E-3,-2.5372175E-3,7.921354E-5,-3.1908639E-3,1.0545749E-2,3.5568844E-3,6.394762E-4,-2.1523263E-3],"split_indices":[20,32,13,16,16,29,15,0,0,0,0,0,0,0,0],"split_type":[0,0,0,0,0,0,0,0,0,0,0,0,0,0,0],"sum_hessian":[2.8477769E3,8.460399E2,2.0017368E3,2.9514203E2,5.508979E2,3.5759987E1,1.9659768E3,2.2957823E1,2.721842E2,4.405344E2,1.1036352E2,1.1132374E1,2.4627611E1,1.8640627E3,1.0191413E2],"tree_param":{"num_deleted":"0","num_feature":"35","num_nodes":"15","size_leaf_vector":"1"}},{"base_weights":[-1.6684071E-5,-1.3918886E-1,5.884367E-2,-2.910103E-1,-5.7474867E-2,5.905316E-1,4.8878595E-2,2.8724396E-3,-3.2003003E-3,7.842025E-5,-3.1594147E-3,1.0451459E-2,3.523003E-3,3.7134546E-4,3.7695884E-3],"categories":[],"categories_nodes":[],"categories_segments":[],"categories_sizes":[],"default_left":[0,0,0,0,0,0,0,0,0,0,0,0,0,0,0],"id":13,"left_children":[1,3,5,7,9,11,13,-1,-1,-1,-1,-1,-1,-1,-1],"loss_changes":[2.3344301E1,1.0491306E1,1.0582197E1,5.0611362E0,9.319645E0,3.6124802E0,7.564721E0,0E0,0E0,0E0,0E0,0E0,0E0,0E0,0E0],"parents":[2147483647,0,0,1,1,2,2,3,3,4,4,5,5,6,6],"right_children":[2,4,6,8,10,12,14,-1,-1,-1,-1,-1,-1,-1,-1],"split_conditions":[-8.140509E-1,-3.7786973E-1,-7.996907E-1,-7.5394756E-1,-6.868134E-1,3.28375E-2,2.401627E0,2.8724396E-3,-3.2003003E-3,7.842025E-5,-3.1594147E-3,1.0451459E-2,3.523003E-3,3.7134546E-4,3.7695884E-3],"split_indices":[20,32,13,15,16,29,11,0,0,0,0,0,0,0,0],"split_type":[0,0,0,0,0,0,0,0,0,0,0,0,0,0,0],"sum_hessian":[2.8477424E3,8.4601654E2,2.001726E3,2.9512482E2,5.508917E2,3.575496E1,1.9659711E3,1.367788E1,2.8144693E2,4.4053433E2,1.10357414E2,1.1129513E1,2.4625444E1,1.8991034E3,6.6867615E1],"tree_param":{"num_deleted":"0","num_feature":"35","num_nodes":"15","size_leaf_vector":"1"}},{"base_weights":[-1.1271577E-5,-1.3781631E-1,5.8269333E-2,-2.9950607E-1,-6.25153E-2,5.605543E-1,4.8662663E-2,3.3619856E-3,-3.329564E-3,-1.0560646E-3,2.6051104E-3,-1.9077786E-4,7.2044674E-3,3.7039066E-4,3.7325826E-3],"categories":[],"categories_nodes":[],"categories_segments":[],"categories_sizes":[],"default_left":[0,0,0,0,0,0,0,0,0,0,0,0,0,0,0],"id":14,"left_children":[1,3,5,7,9,11,13,-1,-1,-1,-1,-1,-1,-1,-1],"loss_changes":[2.2887018E1,1.029372E1,9.6364E0,5.8290634E0,8.0887985E0,3.4882631E0,7.404682E0,0E0,0E0,0E0,0E0,0E0,0E0,0E0,0E0],"parents":[2147483647,0,0,1,1,2,2,3,3,4,4,5,5,6,6],"right_children":[2,4,6,8,10,12,14,-1,-1,-1,-1,-1,-1,-1,-1],"split_conditions":[-8.1381726E-1,-4.0452334E-1,-7.996907E-1,-7.5394756E-1,1.1897721E0,-9.2245005E-2,2.401627E0,3.3619856E-3,-3.329564E-3,-1.0560646E-3,2.6051104E-3,-1.9077786E-4,7.2044674E-3,3.7039066E-4,3.7325826E-3],"split_indices":[1,32,13,15,5,28,11,0,0,0,0,0,0,0,0],"split_type":[0,0,0,0,0,0,0,0,0,0,0,0,0,0,0],"sum_hessian":[2.847706E3,8.4599005E2,2.0017161E3,2.6785724E2,5.781328E2,3.6489902E1,1.9652262E3,1.2937457E1,2.5491977E2,5.106818E2,6.745102E1,8.079886E0,2.8410017E1,1.898361E3,6.686519E1],"tree_param":{"num_deleted":"0","num_feature":"35","num_nodes":"15","size_leaf_vector":"1"}},{"base_weights":[-6.6324856E-6,-1.3760555E-1,5.7209134E-2,-3.5625365E-1,-8.359365E-2,4.1589916E-1,4.6309095E-2,3.867771E-3,-4.015863E-3,-6.942737E-4,-8.820629E-3,5.7152924E-3,-2.9312314E-3,5.212592E-4,-6.1841337E-3],"categories":[],"categories_nodes":[],"categories_segments":[],"categories_sizes":[],"default_left":[0,0,0,0,0,0,0,0,0,0,0,0,0,0,0],"id":15,"left_children":[1,3,5,7,9,11,13,-1,-1,-1,-1,-1,-1,-1,-1],"loss_changes":[2.2434978E1,9.854023E0,7.85003E0,5.72937E0,7.545036E0,6.703827E0,7.5894876E0,0E0,0E0,0E0,0E0,0E0,0E0,0E0,0E0],"parents":[2147483647,0,0,1,1,2,2,3,3,4,4,5,5,6,6],"right_children":[2,4,6,8,10,12,14,-1,-1,-1,-1,-1,-1,-1,-1],"split_conditions":[-8.160919E-1,-5.114052E-1,-6.453094E-1,-7.5394756E-1,-8.1769055E-1,1.5506806E0,4.226847E0,3.867771E-3,-4.015863E-3,-6.942737E-4,-8.820629E-3,5.7152924E-3,-2.9312314E-3,5.212592E-4,-6.1841337E-3],"split_indices":[19,32,16,15,6,12,28,0,0,0,0,0,0,0,0],"split_type":[0,0,0,0,0,0,0,0,0,0,0,0,0,0,0],"sum_hessian":[2.8476724E3,8.359296E2,2.0117427E3,1.6448286E2,6.714468E2,5.8234985E1,1.9535077E3,9.025021E0,1.5545786E2,6.6080975E2,1.0637006E1,4.7912197E1,1.0322789E1,1.937475E3,1.6032795E1],"tree_param":{"num_deleted":"0","num_feature":"35","num_nodes":"15","size_leaf_vector":"1"}},{"base_weights":[-1.0947632E-5,-1.3516547E-1,5.7146337E-2,-2.830954E-1,-5.556085E-2,5.775013E-1,4.7398154E-2,-7.2408044E-3,-2.4339708E-3,9.1544425E-5,-3.1168612E-3,1.0303478E-2,3.406381E-3,6.179654E-4,-2.1399795E-3],"categories":[],"categories_nodes":[],"categories_segments":[],"categories_sizes":[],"default_left":[0,0,0,0,0,0,0,0,0,0,0,0,0,0,0],"id":16,"left_children":[1,3,5,7,9,11,13,-1,-1,-1,-1,-1,-1,-1,-1],"loss_changes":[2.2013613E1,9.957808E0,1.0131306E1,5.0067883E0,9.150368E0,3.589694E0,7.416208E0,0E0,0E0,0E0,0E0,0E0,0E0,0E0,0E0],"parents":[2147483647,0,0,1,1,2,2,3,3,4,4,5,5,6,6],"right_children":[2,4,6,8,10,12,14,-1,-1,-1,-1,-1,-1,-1,-1],"split_conditions":[-8.140509E-1,-3.7786973E-1,-7.996907E-1,-7.112946E-1,-6.868134E-1,3.28375E-2,1.099402E0,-7.2408044E-3,-2.4339708E-3,9.1544425E-5,-3.1168612E-3,1.0303478E-2,3.406381E-3,6.179654E-4,-2.1399795E-3],"split_indices":[20,32,13,16,16,29,15,0,0,0,0,0,0,0,0],"split_type":[0,0,0,0,0,0,0,0,0,0,0,0,0,0,0],"sum_hessian":[2.8476348E3,8.459443E2,2.0016906E3,2.9506543E2,5.508788E2,3.57385E1,1.965952E3,2.294486E1,2.7212057E2,4.4053333E2,1.103455E2,1.11230135E1,2.4615484E1,1.8640394E3,1.0191263E2],"tree_param":{"num_deleted":"0","num_feature":"35","num_nodes":"15","size_leaf_vector":"1"}},{"base_weights":[-1.1158294E-5,-1.338382E-1,5.6583144E-2,-2.9133934E-1,-6.0502917E-2,5.479259E-1,4.71903E-2,3.3311998E-3,-3.2421579E-3,-1.0319134E-3,2.5947657E-3,-2.8564094E-4,7.0731468E-3,3.568299E-4,3.6856814E-3],"categories":[],"categories_nodes":[],"categories_segments":[],"categories_sizes":[],"default_left":[0,0,0,0,0,0,0,0,0,0,0,0,0,0,0],"id":17,"left_children":[1,3,5,7,9,11,13,-1,-1,-1,-1,-1,-1,-1,-1],"loss_changes":[2.1582378E1,9.76457E0,9.21671E0,5.626417E0,7.9371853E0,3.4633703E0,7.2582555E0,0E0,0E0,0E0,0E0,0E0,0E0,0E0,0E0],"parents":[2147483647,0,0,1,1,2,2,3,3,4,4,5,5,6,6],"right_children":[2,4,6,8,10,12,14,-1,-1,-1,-1,-1,-1,-1,-1],"split_conditions":[-8.1381726E-1,-4.0452334E-1,-7.996907E-1,-7.5394756E-1,1.1897721E0,-9.2245005E-2,2.401627E0,3.3311998E-3,-3.2421579E-3,-1.0319134E-3,2.5947657E-3,-2.8564094E-4,7.0731468E-3,3.568299E-4,3.6856814E-3],"split_indices":[1,32,13,15,5,28,11,0,0,0,0,0,0,0,0],"split_type":[0,0,0,0,0,0,0,0,0,0,0,0,0,0,0],"sum_hessian":[2.847592E3,8.459148E2,2.0016772E3,2.6779742E2,5.781174E2,3.6472157E1,1.9652051E3,1.2937051E1,2.5486037E2,5.106669E2,6.74505E1,8.077522E0,2.8394636E1,1.8983436E3,6.6861374E1],"tree_param":{"num_deleted":"0","num_feature":"35","num_nodes":"15","size_leaf_vector":"1"}},{"base_weights":[-6.5889913E-6,-1.3251342E-1,5.602815E-2,-3.479672E-1,-7.9606585E-2,5.672793E-1,4.645428E-2,3.8262063E-3,-3.922185E-3,-1.141521E-3,2.049321E-3,1.0183424E-2,3.316956E-3,6.0707086E-4,-2.1229556E-3],"categories":[],"categories_nodes":[],"categories_segments":[],"categories_sizes":[],"default_left":[0,0,0,0,0,0,0,0,0,0,0,0,0,0,0],"id":18,"left_children":[1,3,5,7,9,11,13,-1,-1,-1,-1,-1,-1,-1,-1],"loss_changes":[2.1157885E1,9.625977E0,9.775984E0,5.5382996E0,6.7195063E0,3.5646257E0,7.266784E0,0E0,0E0,0E0,0E0,0E0,0E0,0E0,0E0],"parents":[2147483647,0,0,1,1,2,2,3,3,4,4,5,5,6,6],"right_children":[2,4,6,8,10,12,14,-1,-1,-1,-1,-1,-1,-1,-1],"split_conditions":[-8.140509E-1,-5.114052E-1,-7.996907E-1,-7.5394756E-1,1.1897721E0,3.28375E-2,1.099402E0,3.8262063E-3,-3.922185E-3,-1.141521E-3,2.049321E-3,1.0183424E-2,3.316956E-3,6.0707086E-4,-2.1229556E-3],"split_indices":[20,32,13,15,5,29,15,0,0,0,0,0,0,0,0],"split_type":[0,0,0,0,0,0,0,0,0,0,0,0,0,0,0],"sum_hessian":[2.8475522E3,8.4588965E2,2.0016626E3,1.6566621E2,6.8022345E2,3.5724E1,1.9659386E3,9.024552E0,1.5664166E2,6.071133E2,7.311014E1,1.1116681E1,2.4607319E1,1.8640271E3,1.01911476E2],"tree_param":{"num_deleted":"0","num_feature":"35","num_nodes":"15","size_leaf_vector":"1"}},{"base_weights":[-1.987881E-6,-1.3119133E-1,5.547438E-2,-2.752636E-1,-5.3679537E-2,5.62099E-1,4.598922E-2,-7.1152886E-3,-2.3602024E-3,1.0504745E-4,-3.0773787E-3,1.009423E-2,3.2854744E-3,3.4591867E-4,3.644485E-3],"categories":[],"categories_nodes":[],"categories_segments":[],"categories_sizes":[],"default_left":[0,0,0,0,0,0,0,0,0,0,0,0,0,0,0],"id":19,"left_children":[1,3,5,7,9,11,13,-1,-1,-1,-1,-1,-1,-1,-1],"loss_changes":[2.0738478E1,9.442411E0,9.597696E0,4.8996925E0,9.002281E0,3.5041847E0,7.1265483E0,0E0,0E0,0E0,0E0,0E0,0E0,0E0,0E0],"parents":[2147483647,0,0,1,1,2,2,3,3,4,4,5,5,6,6],"right_children":[2,4,6,8,10,12,14,-1,-1,-1,-1,-1,-1,-1,-1],"split_conditions":[-8.140509E-1,-3.7786973E-1,-7.996907E-1,-7.112946E-1,-6.868134E-1,3.28375E-2,2.401627E0,-7.1152886E-3,-2.3602024E-3,1.0504745E-4,-3.0773787E-3,1.009423E-2,3.2854744E-3,3.4591867E-4,3.644485E-3],"split_indices":[20,32,13,16,16,29,11,0,0,0,0,0,0,0,0],"split_type":[0,0,0,0,0,0,0,0,0,0,0,0,0,0,0],"sum_hessian":[2.847511E3,8.458642E2,2.0016467E3,2.9499725E2,5.5086694E2,3.5715897E1,1.9659308E3,2.2932074E1,2.720652E2,4.405315E2,1.1033546E2,1.111162E1,2.4604275E1,1.8990735E3,6.685737E1],"tree_param":{"num_deleted":"0","num_feature":"35","num_nodes":"15","size_leaf_vector":"1"}},{"base_weights":[-4.2959425E-7,-1.2990624E-1,5.49314E-2,-3.4171736E-1,-7.790378E-2,4.708773E-1,4.433056E-2,3.814212E-3,-3.8554373E-3,-1.1519414E-3,1.9253616E-3,6.62751E-3,-2.5788175E-3,3.2925187E-4,3.608785E-3],"categories":[],"categories_nodes":[],"categories_segments":[],"categories_sizes":[],"default_left":[0,0,0,0,0,0,0,0,0,0,0,0,0,0,0],"id":20,"left_children":[1,3,5,7,9,11,13,-1,-1,-1,-1,-1,-1,-1,-1],"loss_changes":[2.0333664E1,9.300965E0,8.8094845E0,5.4279957E0,6.8919516E0,7.115816E0,7.04261E0,0E0,0E0,0E0,0E0,0E0,0E0,0E0,0E0],"parents":[2147483647,0,0,1,1,2,2,3,3,4,4,5,5,6,6],"right_children":[2,4,6,8,10,12,14,-1,-1,-1,-1,-1,-1,-1,-1],"split_conditions":[-8.1381726E-1,-5.114052E-1,-6.453094E-1,-7.5394756E-1,1.1107677E0,1.5506806E0,2.401627E0,3.814212E-3,-3.8554373E-3,-1.1519414E-3,1.9253616E-3,6.62751E-3,-2.5788175E-3,3.2925187E-4,3.608785E-3],"split_indices":[1,32,16,15,5,12,11,0,0,0,0,0,0,0,0],"split_type":[0,0,0,0,0,0,0,0,0,0,0,0,0,0,0],"sum_hessian":[2.8474631E3,8.458309E2,2.0016322E3,1.6563048E2,6.8020044E2,4.8666897E1,1.9529653E3,9.024385E0,1.566061E2,5.982791E2,8.192133E1,3.8595684E1,1.0071214E1,1.8861118E3,6.685348E1],"tree_param":{"num_deleted":"0","num_feature":"35","num_nodes":"15","size_leaf_vector":"1"}},{"base_weights":[2.7869564E-6,-1.2861387E-1,5.4388285E-2,-2.7025804E-1,-5.2420117E-2,5.5421793E-1,4.503427E-2,-7.0206802E-3,-2.3143557E-3,1.1185144E-4,-3.0421477E-3,3.278371E-4,7.3585743E-3,5.913229E-4,-2.1089648E-3],"categories":[],"categories_nodes":[],"categories_segments":[],"categories_sizes":[],"default_left":[0,0,0,0,0,0,0,0,0,0,0,0,0,0,0],"id":21,"left_children":[1,3,5,7,9,11,13,-1,-1,-1,-1,-1,-1,-1,-1],"loss_changes":[1.9931335E1,9.124883E0,9.338085E0,4.7987766E0,8.84163E0,3.4519176E0,7.1093206E0,0E0,0E0,0E0,0E0,0E0,0E0,0E0,0E0],"parents":[2147483647,0,0,1,1,2,2,3,3,4,4,5,5,6,6],"right_children":[2,4,6,8,10,12,14,-1,-1,-1,-1,-1,-1,-1,-1],"split_conditions":[-8.140509E-1,-3.7786973E-1,-7.996907E-1,-7.112946E-1,-6.868134E-1,-4.5343943E-2,1.099402E0,-7.0206802E-3,-2.3143557E-3,1.1185144E-4,-3.0421477E-3,3.278371E-4,7.3585743E-3,5.913229E-4,-2.1089648E-3],"split_indices":[20,32,13,16,16,28,15,0,0,0,0,0,0,0,0],"split_type":[0,0,0,0,0,0,0,0,0,0,0,0,0,0,0],"sum_hessian":[2.8474172E3,8.4580414E2,2.0016132E3,2.949483E2,5.5085583E2,3.570078E1,1.9659125E3,2.2921032E1,2.7202725E2,4.4053012E2,1.10325714E2,9.528296E0,2.6172485E1,1.8640023E3,1.0191015E2],"tree_param":{"num_deleted":"0","num_feature":"35","num_nodes":"15","size_leaf_vector":"1"}},{"base_weights":[6.1624735E-7,-1.284522E-1,5.3403404E-2,-3.3461845E-1,-7.7556886E-2,3.9964727E-1,4.2890564E-2,3.8019058E-3,-3.78311E-3,-6.3583796E-4,-8.658403E-3,5.526463E-3,-2.961145E-3,4.863123E-4,-6.1301193E-3],"categories":[],"categories_nodes":[],"categories_segments":[],"categories_sizes":[],"default_left":[0,0,0,0,0,0,0,0,0,0,0,0,0,0,0],"id":22,"left_children":[1,3,5,7,9,11,13,-1,-1,-1,-1,-1,-1,-1,-1],"loss_changes":[1.9545897E1,8.753766E0,7.3088613E0,5.3083706E0,7.3509207E0,6.4642315E0,7.38892E0,0E0,0E0,0E0,0E0,0E0,0E0,0E0,0E0],"parents":[2147483647,0,0,1,1,2,2,3,3,4,4,5,5,6,6],"right_children":[2,4,6,8,10,12,14,-1,-1,-1,-1,-1,-1,-1,-1],"split_conditions":[-8.160919E-1,-5.114052E-1,-6.453094E-1,-7.5394756E-1,-8.1769055E-1,1.5506806E0,4.226847E0,3.8019058E-3,-3.78311E-3,-6.3583796E-4,-8.658403E-3,5.526463E-3,-2.961145E-3,4.863123E-4,-6.1301193E-3],"split_indices":[19,32,16,15,6,12,28,0,0,0,0,0,0,0,0],"split_type":[0,0,0,0,0,0,0,0,0,0,0,0,0,0,0],"sum_hessian":[2.8473647E3,8.357299E2,2.0116348E3,1.6436143E2,6.713685E2,5.818772E1,1.9534471E3,9.024204E0,1.5533723E2,6.60737E2,1.0631543E1,4.786732E1,1.0320399E1,1.9374161E3,1.6031012E1],"tree_param":{"num_deleted":"0","num_feature":"35","num_nodes":"15","size_leaf_vector":"1"}},{"base_weights":[-3.8039475E-6,-1.3094966E-1,5.14363E-2,-1.641564E-1,1.7250285E-1,6.025711E-2,-3.3140758E-1,-5.798825E-3,-1.4334199E-3,7.134316E-3,-5.134488E-5,4.9014E-4,4.276828E-3,-1.2272329E-2,-1.5499609E-3],"categories":[],"categories_nodes":[],"categories_segments":[],"categories_sizes":[],"default_left":[0,0,0,0,0,0,0,0,0,0,0,0,0,0,0],"id":23,"left_children":[1,3,5,7,9,11,13,-1,-1,-1,-1,-1,-1,-1,-1],"loss_changes":[1.9192617E1,8.126134E0,6.9282665E0,6.1892223E0,7.6671133E0,8.242992E0,7.1149983E0,0E0,0E0,0E0,0E0,0E0,0E0,0E0,0E0],"parents":[2147483647,0,0,1,1,2,2,3,3,4,4,5,5,6,6],"right_children":[2,4,6,8,10,12,14,-1,-1,-1,-1,-1,-1,-1,-1],"split_conditions":[-8.187036E-1,1.1897721E0,1.5872023E0,-7.112946E-1,-4.0424088E-1,2.401627E0,3.4556564E-2,-5.798825E-3,-1.4334199E-3,7.134316E-3,-5.134488E-5,4.9014E-4,4.276828E-3,-1.2272329E-2,-1.5499609E-3],"split_indices":[22,5,17,16,17,11,10,0,0,0,0,0,0,0,0],"split_type":[0,0,0,0,0,0,0,0,0,0,0,0,0,0,0],"sum_hessian":[2.8473157E3,8.026204E2,2.0446952E3,7.238669E2,7.875355E1,1.9994696E3,4.522562E1,3.3233574E1,6.906333E2,1.8723087E1,6.0030457E1,1.9412028E3,5.82668E1,6.460789E0,3.8764828E1],"tree_param":{"num_deleted":"0","num_feature":"35","num_nodes":"15","size_leaf_vector":"1"}},{"base_weights":[-6.9065964E-6,-1.2964395E-1,5.0917916E-2,-1.625302E-1,1.7086244E-1,5.96574E-2,-3.2838705E-1,-5.7438184E-3,-1.4191397E-3,7.065901E-3,-5.0840434E-5,4.8524406E-4,4.235144E-3,-1.21656675E-2,-1.5348305E-3],"categories":[],"categories_nodes":[],"categories_segments":[],"categories_sizes":[],"default_left":[0,0,0,0,0,0,0,0,0,0,0,0,0,0,0],"id":24,"left_children":[1,3,5,7,9,11,13,-1,-1,-1,-1,-1,-1,-1,-1],"loss_changes":[1.881024E1,7.9693575E0,6.8008924E0,6.0730057E0,7.5212927E0,8.082943E0,6.994369E0,0E0,0E0,0E0,0E0,0E0,0E0,0E0,0E0],"parents":[2147483647,0,0,1,1,2,2,3,3,4,4,5,5,6,6],"right_children":[2,4,6,8,10,12,14,-1,-1,-1,-1,-1,-1,-1,-1],"split_conditions":[-8.187036E-1,1.1897721E0,1.5872023E0,-7.112946E-1,-4.0424088E-1,2.401627E0,3.4556564E-2,-5.7438184E-3,-1.4191397E-3,7.065901E-3,-5.0840434E-5,4.8524406E-4,4.235144E-3,-1.21656675E-2,-1.5348305E-3],"split_indices":[22,5,17,16,17,11,10,0,0,0,0,0,0,0,0],"split_type":[0,0,0,0,0,0,0,0,0,0,0,0,0,0,0],"sum_hessian":[2.847284E3,8.0259863E2,2.0446852E3,7.238432E2,7.875544E1,1.9994589E3,4.5226376E1,3.322594E1,6.9061725E2,1.8725E1,6.003044E1,1.941197E3,5.826177E1,6.4610257E0,3.876535E1],"tree_param":{"num_deleted":"0","num_feature":"35","num_nodes":"15","size_leaf_vector":"1"}},{"base_weights":[-1.0161827E-5,-1.2374518E-1,5.230566E-2,-2.6268774E-1,-4.902701E-2,5.4297286E-1,4.3616727E-2,-1.0449347E-2,-2.4098326E-3,1.3963826E-4,-2.9983455E-3,-9.197037E-4,7.6212166E-3,3.2683395E-4,3.4951048E-3],"categories":[],"categories_nodes":[],"categories_segments":[],"categories_sizes":[],"default_left":[0,0,0,0,0,0,0,0,0,0,0,0,0,0,0],"id":25,"left_children":[1,3,5,7,9,11,13,-1,-1,-1,-1,-1,-1,-1,-1],"loss_changes":[1.8444044E1,8.777082E0,8.513971E0,4.771427E0,8.722303E0,4.9065237E0,6.573105E0,0E0,0E0,0E0,0E0,0E0,0E0,0E0,0E0],"parents":[2147483647,0,0,1,1,2,2,3,3,4,4,5,5,6,6],"right_children":[2,4,6,8,10,12,14,-1,-1,-1,-1,-1,-1,-1,-1],"split_conditions":[-8.1381726E-1,-3.7786973E-1,-8.0192417E-1,-7.534944E-1,-6.868134E-1,-4.5343943E-2,2.401627E0,-1.0449347E-2,-2.4098326E-3,1.3963826E-4,-2.9983455E-3,-9.197037E-4,7.6212166E-3,3.2683395E-4,3.4951048E-3],"split_indices":[1,32,20,31,16,28,11,0,0,0,0,0,0,0,0],"split_type":[0,0,0,0,0,0,0,0,0,0,0,0,0,0,0],"sum_hessian":[2.8472495E3,8.456919E2,2.0015576E3,2.948627E2,5.508292E2,3.37577E1,1.9677999E3,6.687736E0,2.8817496E2,4.4101236E2,1.0981684E2,8.810688E0,2.4947016E1,1.900962E3,6.683782E1],"tree_param":{"num_deleted":"0","num_feature":"35","num_nodes":"15","size_leaf_vector":"1"}},{"base_weights":[-1.1931494E-5,-1.2718149E-1,4.9940806E-2,-1.597356E-1,1.702546E-1,5.5623468E-2,-5.2937806E-1,-5.6698155E-3,-1.3935736E-3,7.01234E-3,-4.1577372E-5,6.450562E-4,-3.2631021E-3,2.303667E-3,-8.430216E-3],"categories":[],"categories_nodes":[],"categories_segments":[],"categories_sizes":[],"default_left":[0,0,0,0,0,0,0,0,0,0,0,0,0,0,0],"id":26,"left_children":[1,3,5,7,9,11,13,-1,-1,-1,-1,-1,-1,-1,-1],"loss_changes":[1.8099424E1,7.807704E0,6.7638907E0,5.935961E0,7.38896E0,6.8963704E0,4.9519844E0,0E0,0E0,0E0,0E0,0E0,0E0,0E0,0E0],"parents":[2147483647,0,0,1,1,2,2,3,3,4,4,5,5,6,6],"right_children":[2,4,6,8,10,12,14,-1,-1,-1,-1,-1,-1,-1,-1],"split_conditions":[-8.187036E-1,1.1897721E0,4.226847E0,-7.112946E-1,-4.0424088E-1,1.5872023E0,-1.0155766E0,-5.6698155E-3,-1.3935736E-3,7.01234E-3,-4.1577372E-5,6.450562E-4,-3.2631021E-3,2.303667E-3,-8.430216E-3],"split_indices":[22,5,28,16,17,17,12,0,0,0,0,0,0,0,0],"split_type":[0,0,0,0,0,0,0,0,0,0,0,0,0,0,0],"sum_hessian":[2.8471958E3,8.025415E2,2.0446543E3,7.237867E2,7.8754845E1,2.0256879E3,1.8966423E1,3.3213512E1,6.905732E2,1.872576E1,6.0029087E1,1.9804619E3,4.5225998E1,5.6195626E0,1.334686E1],"tree_param":{"num_deleted":"0","num_feature":"35","num_nodes":"15","size_leaf_vector":"1"}},{"base_weights":[-1.4853409E-5,-1.2137026E-1,5.1292E-2,-3.2524723E-1,-7.1349345E-2,5.4141116E-1,4.2127192E-2,3.8249472E-3,-3.6823025E-3,-1.06656E-3,1.8377455E-3,9.897621E-3,3.0820493E-3,5.607542E-4,-2.1105686E-3],"categories":[],"categories_nodes":[],"categories_segments":[],"categories_sizes":[],"default_left":[0,0,0,0,0,0,0,0,0,0,0,0,0,0,0],"id":27,"left_children":[1,3,5,7,9,11,13,-1,-1,-1,-1,-1,-1,-1,-1],"loss_changes":[1.7739916E1,8.6108465E0,8.972248E0,5.206398E0,6.154808E0,3.5295029E0,6.9577255E0,0E0,0E0,0E0,0E0,0E0,0E0,0E0,0E0],"parents":[2147483647,0,0,1,1,2,2,3,3,4,4,5,5,6,6],"right_children":[2,4,6,8,10,12,14,-1,-1,-1,-1,-1,-1,-1,-1],"split_conditions":[-8.140509E-1,-5.114052E-1,-7.996907E-1,-7.5394756E-1,1.1107677E0,3.28375E-2,1.099402E0,3.8249472E-3,-3.6823025E-3,-1.06656E-3,1.8377455E-3,9.897621E-3,3.0820493E-3,5.607542E-4,-2.1105686E-3],"split_indices":[20,32,13,15,5,29,15,0,0,0,0,0,0,0,0],"split_type":[0,0,0,0,0,0,0,0,0,0,0,0,0,0,0],"sum_hessian":[2.8471611E3,8.4563245E2,2.0015287E3,1.655157E2,6.8011676E2,3.567385E1,1.9658549E3,9.024412E0,1.5649129E2,5.979485E2,8.216828E1,1.1096366E1,2.4577484E1,1.8639462E3,1.0190867E2],"tree_param":{"num_deleted":"0","num_feature":"35","num_nodes":"15","size_leaf_vector":"1"}},{"base_weights":[-1.03552375E-5,-1.2471405E-1,4.8970994E-2,-1.5666333E-1,1.6716757E-1,5.4593977E-2,-5.242652E-1,-5.59425E-3,-1.3651786E-3,6.941205E-3,-5.8960053E-5,6.3391106E-4,-3.2366167E-3,2.2957867E-3,-8.355735E-3],"categories":[],"categories_nodes":[],"categories_segments":[],"categories_sizes":[],"default_left":[0,0,0,0,0,0,0,0,0,0,0,0,0,0,0],"id":28,"left_children":[1,3,5,7,9,11,13,-1,-1,-1,-1,-1,-1,-1,-1],"loss_changes":[1.7402786E1,7.519002E0,6.622273E0,5.803936E0,7.2775297E0,6.764348E0,4.8772426E0,0E0,0E0,0E0,0E0,0E0,0E0,0E0,0E0],"parents":[2147483647,0,0,1,1,2,2,3,3,4,4,5,5,6,6],"right_children":[2,4,6,8,10,12,14,-1,-1,-1,-1,-1,-1,-1,-1],"split_conditions":[-8.187036E-1,1.1897721E0,4.226847E0,-7.112946E-1,-4.0424088E-1,1.5872023E0,-1.0155766E0,-5.59425E-3,-1.3651786E-3,6.941205E-3,-5.8960053E-5,6.3391106E-4,-3.2366167E-3,2.2957867E-3,-8.355735E-3],"split_indices":[22,5,28,16,17,17,12,0,0,0,0,0,0,0,0],"split_type":[0,0,0,0,0,0,0,0,0,0,0,0,0,0,0],"sum_hessian":[2.847107E3,8.024837E2,2.0446233E3,7.237279E2,7.875578E1,2.0256581E3,1.8965298E1,3.3200073E1,6.9052783E2,1.8726274E1,6.002951E1,1.9804314E3,4.522665E1,5.619651E0,1.3345647E1],"tree_param":{"num_deleted":"0","num_feature":"35","num_nodes":"15","size_leaf_vector":"1"}},{"base_weights":[-1.3417866E-5,-1.2347133E-1,4.8477214E-2,-1.5511239E-1,1.6558099E-1,5.4046918E-2,-5.1935774E-1,-2.0072507E-3,1.856722E-4,6.8751173E-3,-5.8380956E-5,6.2757736E-4,-3.2049108E-3,2.276191E-3,-8.2788775E-3],"categories":[],"categories_nodes":[],"categories_segments":[],"categories_sizes":[],"default_left":[0,0,0,0,0,0,0,0,0,0,0,0,0,0,0],"id":29,"left_children":[1,3,5,7,9,11,13,-1,-1,-1,-1,-1,-1,-1,-1],"loss_changes":[1.7056099E1,7.374034E0,6.497673E0,5.744793E0,7.139723E0,6.63212E0,4.7894635E0,0E0,0E0,0E0,0E0,0E0,0E0,0E0,0E0],"parents":[2147483647,0,0,1,1,2,2,3,3,4,4,5,5,6,6],"right_children":[2,4,6,8,10,12,14,-1,-1,-1,-1,-1,-1,-1,-1],"split_conditions":[-8.187036E-1,1.1897721E0,4.226847E0,1.680106E-1,-4.0424088E-1,1.5872023E0,-1.0155766E0,-2.0072507E-3,1.856722E-4,6.8751173E-3,-5.8380956E-5,6.2757736E-4,-3.2049108E-3,2.276191E-3,-8.2788775E-3],"split_indices":[22,5,28,32,17,17,12,0,0,0,0,0,0,0,0],"split_type":[0,0,0,0,0,0,0,0,0,0,0,0,0,0,0],"sum_hessian":[2.847069E3,8.0245636E2,2.0446128E3,7.237E2,7.8756325E1,2.0256487E3,1.8964094E1,5.730475E2,1.5065257E2,1.872683E1,6.0029495E1,1.9804214E3,4.5227215E1,5.6199565E0,1.3344137E1],"tree_param":{"num_deleted":"0","num_feature":"35","num_nodes":"15","size_leaf_vector":"1"}},{"base_weights":[-1.4594672E-5,-1.1786138E-1,4.9804784E-2,-3.1903896E-1,-6.851801E-2,4.709243E-1,3.9248124E-2,3.8158726E-3,-3.6162152E-3,-2.6377517E-4,-2.76361E-3,1.1142001E-3,8.475274E-3,2.8232997E-4,3.4523096E-3],"categories":[],"categories_nodes":[],"categories_segments":[],"categories_sizes":[],"default_left":[0,0,0,0,0,0,0,0,0,0,0,0,0,0,0],"id":30,"left_children":[1,3,5,7,9,11,13,-1,-1,-1,-1,-1,-1,-1,-1],"loss_changes":[1.6726812E1,8.381603E0,8.883801E0,5.10437E0,5.958025E0,6.52345E0,6.5781336E0,0E0,0E0,0E0,0E0,0E0,0E0,0E0,0E0],"parents":[2147483647,0,0,1,1,2,2,3,3,4,4,5,5,6,6],"right_children":[2,4,6,8,10,12,14,-1,-1,-1,-1,-1,-1,-1,-1],"split_conditions":[-8.140509E-1,-5.114052E-1,-6.453094E-1,-7.5394756E-1,-6.868134E-1,-6.145487E-1,2.401627E0,3.8158726E-3,-3.6162152E-3,-2.6377517E-4,-2.76361E-3,1.1142001E-3,8.475274E-3,2.8232997E-4,3.4523096E-3],"split_indices":[20,32,16,15,16,5,11,0,0,0,0,0,0,0,0],"split_type":[0,0,0,0,0,0,0,0,0,0,0,0,0,0,0],"sum_hessian":[2.8470308E3,8.455448E2,2.0014858E3,1.6546455E2,6.8008026E2,4.787997E1,1.9536058E3,9.024248E0,1.564403E2,5.6637396E2,1.137063E2,2.515906E1,2.2720911E1,1.8867758E3,6.683007E1],"tree_param":{"num_deleted":"0","num_feature":"35","num_nodes":"15","size_leaf_vector":"1"}},{"base_weights":[-1.0697395E-5,-1.2110252E-1,4.754768E-2,-1.5242982E-1,1.6505012E-1,5.30655E-2,-5.150189E-1,-5.5055623E-3,-1.3252769E-3,6.824373E-3,-4.892028E-5,6.1701075E-4,-3.1822105E-3,2.25552E-3,-8.209573E-3],"categories":[],"categories_nodes":[],"categories_segments":[],"categories_sizes":[],"default_left":[0,0,0,0,0,0,0,0,0,0,0,0,0,0,0],"id":31,"left_children":[1,3,5,7,9,11,13,-1,-1,-1,-1,-1,-1,-1,-1],"loss_changes":[1.6407024E1,7.227089E0,6.3770905E0,5.6687527E0,7.0158567E0,6.517517E0,4.707979E0,0E0,0E0,0E0,0E0,0E0,0E0,0E0,0E0],"parents":[2147483647,0,0,1,1,2,2,3,3,4,4,5,5,6,6],"right_children":[2,4,6,8,10,12,14,-1,-1,-1,-1,-1,-1,-1,-1],"split_conditions":[-8.187036E-1,1.1897721E0,4.226847E0,-7.112946E-1,-4.0424088E-1,1.5872023E0,-1.0155766E0,-5.5055623E-3,-1.3252769E-3,6.824373E-3,-4.892028E-5,6.1701075E-4,-3.1822105E-3,2.25552E-3,-8.209573E-3],"split_indices":[22,5,28,16,17,17,12,0,0,0,0,0,0,0,0],"split_type":[0,0,0,0,0,0,0,0,0,0,0,0,0,0,0],"sum_hessian":[2.846971E3,8.0239325E2,2.0445778E3,7.2363837E2,7.8754875E1,2.0256156E3,1.8962166E1,3.3182625E1,6.9045575E2,1.8726505E1,6.0028366E1,1.9803885E3,4.5227085E1,5.6202483E0,1.3341917E1],"tree_param":{"num_deleted":"0","num_feature":"35","num_nodes":"15","size_leaf_vector":"1"}},{"base_weights":[-1.36938115E-5,-1.15581155E-1,4.8838932E-2,-2.5040978E-1,-4.3116048E-2,4.4968787E-1,3.863636E-2,-1.0242688E-2,-2.2898337E-3,1.9268358E-4,-2.9161468E-3,6.383884E-3,-2.6500623E-3,2.772186E-4,3.4173531E-3],"categories":[],"categories_nodes":[],"categories_segments":[],"categories_sizes":[],"default_left":[0,0,0,0,0,0,0,0,0,0,0,0,0,0,0],"id":32,"left_children":[1,3,5,7,9,11,13,-1,-1,-1,-1,-1,-1,-1,-1],"loss_changes":[1.6084404E1,8.259584E0,8.172035E0,4.6684723E0,8.559483E0,6.859496E0,6.4541826E0,0E0,0E0,0E0,0E0,0E0,0E0,0E0,0E0],"parents":[2147483647,0,0,1,1,2,2,3,3,4,4,5,5,6,6],"right_children":[2,4,6,8,10,12,14,-1,-1,-1,-1,-1,-1,-1,-1],"split_conditions":[-8.1381726E-1,-3.7786973E-1,-6.453094E-1,-7.534944E-1,-6.868134E-1,1.5506806E0,2.401627E0,-1.0242688E-2,-2.2898337E-3,1.9268358E-4,-2.9161468E-3,6.383884E-3,-2.6500623E-3,2.772186E-4,3.4173531E-3],"split_indices":[1,32,16,31,16,12,11,0,0,0,0,0,0,0,0],"split_type":[0,0,0,0,0,0,0,0,0,0,0,0,0,0,0],"sum_hessian":[2.8469282E3,8.454757E2,2.0014525E3,2.947004E2,5.5077527E2,4.8608204E1,1.9528444E3,6.678765E0,2.8802164E2,4.4098944E2,1.0978585E2,3.8539417E1,1.00687895E1,1.8860208E3,6.6823555E1],"tree_param":{"num_deleted":"0","num_feature":"35","num_nodes":"15","size_leaf_vector":"1"}},{"base_weights":[-1.6170496E-5,-1.1880717E-1,4.6635486E-2,-1.4981882E-1,1.6443029E-1,5.2103546E-2,-5.108869E-1,-1.9480153E-3,2.142004E-4,6.7727715E-3,-4.0329982E-5,6.0664606E-4,-3.1596404E-3,2.2375083E-3,-8.144386E-3],"categories":[],"categories_nodes":[],"categories_segments":[],"categories_sizes":[],"default_left":[0,0,0,0,0,0,0,0,0,0,0,0,0,0,0],"id":33,"left_children":[1,3,5,7,9,11,13,-1,-1,-1,-1,-1,-1,-1,-1],"loss_changes":[1.5787828E1,7.0807734E0,6.26258E0,5.5853996E0,6.8930483E0,6.4050198E0,4.633301E0,0E0,0E0,0E0,0E0,0E0,0E0,0E0,0E0],"parents":[2147483647,0,0,1,1,2,2,3,3,4,4,5,5,6,6],"right_children":[2,4,6,8,10,12,14,-1,-1,-1,-1,-1,-1,-1,-1],"split_conditions":[-8.187036E-1,1.1897721E0,4.226847E0,1.680106E-1,-4.0424088E-1,1.5872023E0,-1.0155766E0,-1.9480153E-3,2.142004E-4,6.7727715E-3,-4.0329982E-5,6.0664606E-4,-3.1596404E-3,2.2375083E-3,-8.144386E-3],"split_indices":[22,5,28,32,17,17,12,0,0,0,0,0,0,0,0],"split_type":[0,0,0,0,0,0,0,0,0,0,0,0,0,0,0],"sum_hessian":[2.8468647E3,8.0232513E2,2.0445396E3,7.2357227E2,7.875285E1,2.0255797E3,1.8959902E1,5.729314E2,1.5064088E2,1.8725908E1,6.0026943E1,1.9803529E3,4.5226795E1,5.620469E0,1.3339434E1],"tree_param":{"num_deleted":"0","num_feature":"35","num_nodes":"15","size_leaf_vector":"1"}},{"base_weights":[-1.739733E-5,-1.1761738E-1,4.6165116E-2,-1.4832917E-1,1.6287161E-1,5.5861205E-1,4.0275756E-2,-5.4183058E-3,-1.2867014E-3,6.708673E-3,-3.9933253E-5,1.5360665E-3,1.0803722E-2,2.992585E-4,3.3828202E-3],"categories":[],"categories_nodes":[],"categories_segments":[],"categories_sizes":[],"default_left":[0,0,0,0,0,0,0,0,0,0,0,0,0,0,0],"id":34,"left_children":[1,3,5,7,9,11,13,-1,-1,-1,-1,-1,-1,-1,-1],"loss_changes":[1.5472126E1,6.9440002E0,6.1508684E0,5.535242E0,6.7630115E0,4.728892E0,6.2306066E0,0E0,0E0,0E0,0E0,0E0,0E0,0E0,0E0],"parents":[2147483647,0,0,1,1,2,2,3,3,4,4,5,5,6,6],"right_children":[2,4,6,8,10,12,14,-1,-1,-1,-1,-1,-1,-1,-1],"split_conditions":[-8.187036E-1,1.1897721E0,-1.1050117E0,-7.112946E-1,-4.0424088E-1,2.278924E-1,2.401627E0,-5.4183058E-3,-1.2867014E-3,6.708673E-3,-3.9933253E-5,1.5360665E-3,1.0803722E-2,2.992585E-4,3.3828202E-3],"split_indices":[22,5,15,16,17,16,11,0,0,0,0,0,0,0,0],"split_type":[0,0,0,0,0,0,0,0,0,0,0,0,0,0,0],"sum_hessian":[2.8468213E3,8.022953E2,2.0445259E3,7.23543E2,7.8752266E1,2.216366E1,2.0223623E3,3.3163826E1,6.903792E2,1.8725332E1,6.002693E1,1.3206665E1,8.956996E0,1.9555457E3,6.681665E1],"tree_param":{"num_deleted":"0","num_feature":"35","num_nodes":"15","size_leaf_vector":"1"}},{"base_weights":[-1.1569852E-5,-1.12252496E-1,4.7430404E-2,-2.5521037E-1,-4.5787703E-2,5.276392E-1,3.846019E-2,-2.2721482E-3,-1.0664744E-2,6.481982E-5,-2.8977708E-3,9.730469E-3,2.9645392E-3,5.226781E-4,-2.1213065E-3],"categories":[],"categories_nodes":[],"categories_segments":[],"categories_sizes":[],"default_left":[0,0,0,0,0,0,0,0,0,0,0,0,0,0,0],"id":35,"left_children":[1,3,5,7,9,11,13,-1,-1,-1,-1,-1,-1,-1,-1],"loss_changes":[1.5169535E1,8.030281E0,8.6052E0,5.853443E0,7.3857284E0,3.484418E0,6.816205E0,0E0,0E0,0E0,0E0,0E0,0E0,0E0,0E0],"parents":[2147483647,0,0,1,1,2,2,3,3,4,4,5,5,6,6],"right_children":[2,4,6,8,10,12,14,-1,-1,-1,-1,-1,-1,-1,-1],"split_conditions":[-8.140509E-1,-4.0452334E-1,-7.996907E-1,-8.1754553E-1,-6.863399E-1,3.28375E-2,1.099402E0,-2.2721482E-3,-1.0664744E-2,6.481982E-5,-2.8977708E-3,9.730469E-3,2.9645392E-3,5.226781E-4,-2.1213065E-3],"split_indices":[20,32,13,3,16,29,15,0,0,0,0,0,0,0,0],"split_type":[0,0,0,0,0,0,0,0,0,0,0,0,0,0,0],"sum_hessian":[2.846776E3,8.453745E2,2.0014012E3,2.6739655E2,5.7797797E2,3.5639973E1,1.9657614E3,2.5971426E2,7.6822853E0,4.7680566E2,1.01172325E2,1.1081367E1,2.4558607E1,1.8638539E3,1.01907394E2],"tree_param":{"num_deleted":"0","num_feature":"35","num_nodes":"15","size_leaf_vector":"1"}},{"base_weights":[-1.3068612E-5,-1.1544789E-1,4.5316156E-2,-1.4585376E-1,1.622183E-1,5.0724484E-2,-5.06137E-1,-1.902899E-3,2.3272855E-4,6.658489E-3,-3.2187563E-5,5.921426E-4,-3.142522E-3,2.2284943E-3,-8.074729E-3],"categories":[],"categories_nodes":[],"categories_segments":[],"categories_sizes":[],"default_left":[0,0,0,0,0,0,0,0,0,0,0,0,0,0,0],"id":36,"left_children":[1,3,5,7,9,11,13,-1,-1,-1,-1,-1,-1,-1,-1],"loss_changes":[1.4906099E1,6.8050528E0,6.126215E0,5.4491167E0,6.646827E0,6.2979546E0,4.563936E0,0E0,0E0,0E0,0E0,0E0,0E0,0E0,0E0],"parents":[2147483647,0,0,1,1,2,2,3,3,4,4,5,5,6,6],"right_children":[2,4,6,8,10,12,14,-1,-1,-1,-1,-1,-1,-1,-1],"split_conditions":[-8.187036E-1,1.1897721E0,4.226847E0,1.680106E-1,-4.0424088E-1,1.5872023E0,-1.0155766E0,-1.902899E-3,2.3272855E-4,6.658489E-3,-3.2187563E-5,5.921426E-4,-3.142522E-3,2.2284943E-3,-8.074729E-3],"split_indices":[22,5,28,32,17,17,12,0,0,0,0,0,0,0,0],"split_type":[0,0,0,0,0,0,0,0,0,0,0,0,0,0,0],"sum_hessian":[2.8467146E3,8.02227E2,2.0444877E3,7.2347723E2,7.8749756E1,2.0255305E3,1.8957188E1,5.7284375E2,1.5063348E2,1.8724138E1,6.002562E1,1.9803041E3,4.5226376E1,5.6205387E0,1.3336648E1],"tree_param":{"num_deleted":"0","num_feature":"35","num_nodes":"15","size_leaf_vector":"1"}},{"base_weights":[-1.4093319E-5,-1.142919E-1,4.4859316E-2,-1.4440377E-1,1.6068192E-1,5.525304E-1,3.9025526E-2,-5.3371917E-3,-1.2496548E-3,6.5957224E-3,-3.1871186E-5,1.511461E-3,1.0697869E-2,2.8766776E-4,3.3444967E-3],"categories":[],"categories_nodes":[],"categories_segments":[],"categories_sizes":[],"default_left":[0,0,0,0,0,0,0,0,0,0,0,0,0,0,0],"id":37,"left_children":[1,3,5,7,9,11,13,-1,-1,-1,-1,-1,-1,-1,-1],"loss_changes":[1.4608066E1,6.6736374E0,6.036406E0,5.4156446E0,6.5217495E0,4.647182E0,6.1223907E0,0E0,0E0,0E0,0E0,0E0,0E0,0E0,0E0],"parents":[2147483647,0,0,1,1,2,2,3,3,4,4,5,5,6,6],"right_children":[2,4,6,8,10,12,14,-1,-1,-1,-1,-1,-1,-1,-1],"split_conditions":[-8.187036E-1,1.1897721E0,-1.1050117E0,-7.112946E-1,-4.0424088E-1,2.278924E-1,2.401627E0,-5.3371917E-3,-1.2496548E-3,6.5957224E-3,-3.1871186E-5,1.511461E-3,1.0697869E-2,2.8766776E-4,3.3444967E-3],"split_indices":[22,5,15,16,17,16,11,0,0,0,0,0,0,0,0],"split_type":[0,0,0,0,0,0,0,0,0,0,0,0,0,0,0],"sum_hessian":[2.8466677E3,8.021947E2,2.0444729E3,7.234463E2,7.874843E1,2.2162067E1,2.0223109E3,3.314534E1,6.9030096E2,1.8722822E1,6.0025608E1,1.3206332E1,8.955736E0,1.9555024E3,6.68084E1],"tree_param":{"num_deleted":"0","num_feature":"35","num_nodes":"15","size_leaf_vector":"1"}},{"base_weights":[-8.489827E-6,-1.1315396E-1,4.441865E-2,-1.4297542E-1,1.5916093E-1,4.9774326E-2,-5.017104E-1,-1.8694247E-3,2.4342313E-4,6.533679E-3,-3.155728E-5,5.8190577E-4,-3.1203027E-3,2.20704E-3,-8.003964E-3],"categories":[],"categories_nodes":[],"categories_segments":[],"categories_sizes":[],"default_left":[0,0,0,0,0,0,0,0,0,0,0,0,0,0,0],"id":38,"left_children":[1,3,5,7,9,11,13,-1,-1,-1,-1,-1,-1,-1,-1],"loss_changes":[1.4319235E1,6.545079E0,6.0077176E0,5.3336716E0,6.399186E0,6.188942E0,4.482331E0,0E0,0E0,0E0,0E0,0E0,0E0,0E0,0E0],"parents":[2147483647,0,0,1,1,2,2,3,3,4,4,5,5,6,6],"right_children":[2,4,6,8,10,12,14,-1,-1,-1,-1,-1,-1,-1,-1],"split_conditions":[-8.187036E-1,1.1897721E0,4.226847E0,1.680106E-1,-4.0424088E-1,1.5872023E0,-1.0155766E0,-1.8694247E-3,2.4342313E-4,6.533679E-3,-3.155728E-5,5.8190577E-4,-3.1203027E-3,2.20704E-3,-8.003964E-3],"split_indices":[22,5,28,32,17,17,12,0,0,0,0,0,0,0,0],"split_type":[0,0,0,0,0,0,0,0,0,0,0,0,0,0,0],"sum_hessian":[2.846619E3,8.021598E2,2.0444591E3,7.234131E2,7.8746704E1,2.0255046E3,1.8954481E1,5.727824E2,1.5063066E2,1.8721107E1,6.0025597E1,1.9802788E3,4.522582E1,5.6208177E0,1.3333663E1],"tree_param":{"num_deleted":"0","num_feature":"35","num_nodes":"15","size_leaf_vector":"1"}},{"base_weights":[-9.588213E-6,-1.0797486E-1,4.5619123E-2,-3.0234498E-1,-6.0342826E-2,4.422718E-1,3.5529517E-2,3.9029038E-3,-3.445694E-3,-5.069606E-4,-9.888152E-3,6.292806E-3,-2.6532253E-3,2.489089E-4,3.3108743E-3],"categories":[],"categories_nodes":[],"categories_segments":[],"categories_sizes":[],"default_left":[0,0,0,0,0,0,0,0,0,0,0,0,0,0,0],"id":39,"left_children":[1,3,5,7,9,11,13,-1,-1,-1,-1,-1,-1,-1,-1],"loss_changes":[1.4032949E1,7.8164005E0,7.99777E0,4.9984236E0,6.0487413E0,6.728018E0,6.134999E0,0E0,0E0,0E0,0E0,0E0,0E0,0E0,0E0],"parents":[2147483647,0,0,1,1,2,2,3,3,4,4,5,5,6,6],"right_children":[2,4,6,8,10,12,14,-1,-1,-1,-1,-1,-1,-1,-1],"split_conditions":[-8.1381726E-1,-5.114052E-1,-6.453094E-1,-7.5394756E-1,3.6785114E0,1.5506806E0,2.401627E0,3.9029038E-3,-3.445694E-3,-5.069606E-4,-9.888152E-3,6.292806E-3,-2.6532253E-3,2.489089E-4,3.3108743E-3],"split_indices":[1,32,16,15,4,12,11,0,0,0,0,0,0,0,0],"split_type":[0,0,0,0,0,0,0,0,0,0,0,0,0,0,0],"sum_hessian":[2.8465688E3,8.452345E2,2.0013345E3,1.653106E2,6.799239E2,4.8582363E1,1.9527521E3,9.024958E0,1.5628564E2,6.7397595E2,5.947965E0,3.851419E1,1.0068171E1,1.8859514E3,6.680071E1],"tree_param":{"num_deleted":"0","num_feature":"35","num_nodes":"15","size_leaf_vector":"1"}},{"base_weights":[-1.04772635E-5,-1.1096236E-1,4.355242E-2,-1.4046441E-1,1.5840654E-1,5.4678863E-1,3.7770428E-2,-5.2524465E-3,-1.2126517E-3,6.484101E-3,-2.5242492E-5,1.4897224E-3,1.0596111E-2,2.769919E-4,3.2786094E-3],"categories":[],"categories_nodes":[],"categories_segments":[],"categories_sizes":[],"default_left":[0,0,0,0,0,0,0,0,0,0,0,0,0,0,0],"id":40,"left_children":[1,3,5,7,9,11,13,-1,-1,-1,-1,-1,-1,-1,-1],"loss_changes":[1.3767925E1,6.4043436E0,5.930915E0,5.2873955E0,6.290002E0,4.566983E0,5.9020033E0,0E0,0E0,0E0,0E0,0E0,0E0,0E0,0E0],"parents":[2147483647,0,0,1,1,2,2,3,3,4,4,5,5,6,6],"right_children":[2,4,6,8,10,12,14,-1,-1,-1,-1,-1,-1,-1,-1],"split_conditions":[-8.187036E-1,1.1897721E0,-1.1050117E0,-7.112946E-1,-4.0424088E-1,2.278924E-1,2.401627E0,-5.2524465E-3,-1.2126517E-3,6.484101E-3,-2.5242492E-5,1.4897224E-3,1.0596111E-2,2.769919E-4,3.2786094E-3],"split_indices":[22,5,15,16,17,16,11,0,0,0,0,0,0,0,0],"split_type":[0,0,0,0,0,0,0,0,0,0,0,0,0,0,0],"sum_hessian":[2.8465054E3,8.0208905E2,2.0444161E3,7.2334485E2,7.874423E1,2.2159912E1,2.0222562E3,3.3124508E1,6.9022034E2,1.8719078E1,6.0025154E1,1.3206E1,8.953912E0,1.9554629E3,6.679343E1],"tree_param":{"num_deleted":"0","num_feature":"35","num_nodes":"15","size_leaf_vector":"1"}},{"base_weights":[-4.9024816E-6,-1.098578E-1,4.3124825E-2,-1.3907532E-1,1.5690827E-1,5.127854E-2,-3.1062543E-1,-1.1389856E-3,-4.2865397E-3,6.423333E-3,-2.4994148E-5,4.088411E-4,3.913599E-3,-1.1896407E-2,-1.3792275E-3],"categories":[],"categories_nodes":[],"categories_segments":[],"categories_sizes":[],"default_left":[0,0,0,0,0,0,0,0,0,0,0,0,0,0,0],"id":41,"left_children":[1,3,5,7,9,11,13,-1,-1,-1,-1,-1,-1,-1,-1],"loss_changes":[1.3495758E1,6.281005E0,5.915638E0,5.2318687E0,6.1720676E0,7.054527E0,6.8532114E0,0E0,0E0,0E0,0E0,0E0,0E0,0E0,0E0],"parents":[2147483647,0,0,1,1,2,2,3,3,4,4,5,5,6,6],"right_children":[2,4,6,8,10,12,14,-1,-1,-1,-1,-1,-1,-1,-1],"split_conditions":[-8.187036E-1,1.1897721E0,1.5872023E0,-1.5525886E-1,-4.0424088E-1,2.401627E0,3.4556564E-2,-1.1389856E-3,-4.2865397E-3,6.423333E-3,-2.4994148E-5,4.088411E-4,3.913599E-3,-1.1896407E-2,-1.3792275E-3],"split_indices":[22,5,17,10,17,11,10,0,0,0,0,0,0,0,0],"split_type":[0,0,0,0,0,0,0,0,0,0,0,0,0,0,0],"sum_hessian":[2.8464531E3,8.02052E2,2.044401E3,7.233102E2,7.874182E1,1.9991764E3,4.522467E1,6.667357E2,5.6574482E1,1.8716677E1,6.0025143E1,1.9409717E3,5.8204678E1,6.4594164E0,3.8765255E1],"tree_param":{"num_deleted":"0","num_feature":"35","num_nodes":"15","size_leaf_vector":"1"}},{"base_weights":[-7.5825774E-6,-1.04866505E-1,4.4304077E-2,-2.9717314E-1,-5.7755742E-2,4.5395744E-1,3.4047402E-2,3.885922E-3,-3.3900675E-3,-1.6024805E-4,-2.637241E-3,9.917598E-4,8.264369E-3,5.415125E-3,2.7948126E-4],"categories":[],"categories_nodes":[],"categories_segments":[],"categories_sizes":[],"default_left":[0,0,0,0,0,0,0,0,0,0,0,0,0,0,0],"id":42,"left_children":[1,3,5,7,9,11,13,-1,-1,-1,-1,-1,-1,-1,-1],"loss_changes":[1.32350235E1,7.648514E0,8.397461E0,4.901225E0,5.848063E0,6.370367E0,6.0342164E0,0E0,0E0,0E0,0E0,0E0,0E0,0E0,0E0],"parents":[2147483647,0,0,1,1,2,2,3,3,4,4,5,5,6,6],"right_children":[2,4,6,8,10,12,14,-1,-1,-1,-1,-1,-1,-1,-1],"split_conditions":[-8.140509E-1,-5.114052E-1,-6.453094E-1,-7.5394756E-1,-6.868134E-1,-6.145487E-1,-1.1050117E0,3.885922E-3,-3.3900675E-3,-1.6024805E-4,-2.637241E-3,9.917598E-4,8.264369E-3,5.415125E-3,2.7948126E-4],"split_indices":[20,32,16,15,16,5,15,0,0,0,0,0,0,0,0],"split_type":[0,0,0,0,0,0,0,0,0,0,0,0,0,0,0],"sum_hessian":[2.8464026E3,8.4512823E2,2.0012743E3,1.6525354E2,6.798747E2,4.7826237E1,1.9534481E3,9.024748E0,1.5622879E2,5.6622955E2,1.1364511E2,2.5143589E1,2.2682648E1,2.2157322E1,1.9312908E3],"tree_param":{"num_deleted":"0","num_feature":"35","num_nodes":"15","size_leaf_vector":"1"}},{"base_weights":[-3.0541303E-6,-1.0775957E-1,4.230057E-2,-1.3668875E-1,1.5634848E-1,4.760676E-2,-4.9875733E-1,-1.8013739E-3,2.859705E-4,-2.5879373E-3,3.378347E-3,5.5881514E-4,-3.0808926E-3,2.186824E-3,-7.954287E-3],"categories":[],"categories_nodes":[],"categories_segments":[],"categories_sizes":[],"default_left":[0,0,0,0,0,0,0,0,0,0,0,0,0,0,0],"id":43,"left_children":[1,3,5,7,9,11,13,-1,-1,-1,-1,-1,-1,-1,-1],"loss_changes":[1.298412E1,6.1564655E0,5.895876E0,5.2062387E0,6.0950904E0,5.9815407E0,4.420454E0,0E0,0E0,0E0,0E0,0E0,0E0,0E0,0E0],"parents":[2147483647,0,0,1,1,2,2,3,3,4,4,5,5,6,6],"right_children":[2,4,6,8,10,12,14,-1,-1,-1,-1,-1,-1,-1,-1],"split_conditions":[-8.187036E-1,1.1897721E0,4.226847E0,1.680106E-1,-2.5299394E-1,1.5872023E0,-1.0155766E0,-1.8013739E-3,2.859705E-4,-2.5879373E-3,3.378347E-3,5.5881514E-4,-3.0808926E-3,2.186824E-3,-7.954287E-3],"split_indices":[22,5,28,32,32,17,12,0,0,0,0,0,0,0,0],"split_type":[0,0,0,0,0,0,0,0,0,0,0,0,0,0,0],"sum_hessian":[2.8463372E3,8.0197797E2,2.0443593E3,7.2324005E2,7.873791E1,2.025408E3,1.8951279E1,5.726245E2,1.5061552E2,2.3821424E1,5.4916485E1,1.9801847E3,4.5223267E1,5.6209736E0,1.3330305E1],"tree_param":{"num_deleted":"0","num_feature":"35","num_nodes":"15","size_leaf_vector":"1"}},{"base_weights":[-6.2895115E-6,-1.0283818E-1,4.344556E-2,-2.3113066E-1,-3.395446E-2,5.1336026E-1,3.514363E-2,-9.980886E-3,-2.099718E-3,2.7757048E-4,-2.7994239E-3,-1.1681968E-3,7.3200576E-3,4.8898486E-4,-1.9130758E-3],"categories":[],"categories_nodes":[],"categories_segments":[],"categories_sizes":[],"default_left":[0,0,0,0,0,0,0,0,0,0,0,0,0,0,0],"id":44,"left_children":[1,3,5,7,9,11,13,-1,-1,-1,-1,-1,-1,-1,-1],"loss_changes":[1.2726813E1,7.468915E0,7.7930803E0,4.5841055E0,8.382026E0,4.8647203E0,6.1410046E0,0E0,0E0,0E0,0E0,0E0,0E0,0E0,0E0],"parents":[2147483647,0,0,1,1,2,2,3,3,4,4,5,5,6,6],"right_children":[2,4,6,8,10,12,14,-1,-1,-1,-1,-1,-1,-1,-1],"split_conditions":[-8.1381726E-1,-3.7786973E-1,-8.0192417E-1,-7.534944E-1,-6.868134E-1,-4.5343943E-2,1.0300868E0,-9.980886E-3,-2.099718E-3,2.7757048E-4,-2.7994239E-3,-1.1681968E-3,7.3200576E-3,4.8898486E-4,-1.9130758E-3],"split_indices":[1,32,20,31,16,28,15,0,0,0,0,0,0,0,0],"split_type":[0,0,0,0,0,0,0,0,0,0,0,0,0,0,0],"sum_hessian":[2.846286E3,8.4504944E2,2.0012363E3,2.943961E2,5.506534E2,3.3685715E1,1.9675507E3,6.6641874E0,2.877319E2,4.4092477E2,1.0972857E2,8.796929E0,2.4888784E1,1.8556224E3,1.1192817E2],"tree_param":{"num_deleted":"0","num_feature":"35","num_nodes":"15","size_leaf_vector":"1"}},{"base_weights":[-9.597276E-6,-1.0572512E-1,4.1489616E-2,-1.3435657E-1,1.5563121E-1,4.6740074E-2,-4.9395916E-1,-5.14365E-3,-1.1541415E-3,6.38578E-3,-2.9334811E-5,1.410973E-3,1.550211E-4,2.1802555E-3,-7.885239E-3],"categories":[],"categories_nodes":[],"categories_segments":[],"categories_sizes":[],"default_left":[0,0,0,0,0,0,0,0,0,0,0,0,0,0,0],"id":45,"left_children":[1,3,5,7,9,11,13,-1,-1,-1,-1,-1,-1,-1,-1],"loss_changes":[1.2495449E1,6.029024E0,5.773194E0,5.1533737E0,6.1079483E0,5.9705954E0,4.3554187E0,0E0,0E0,0E0,0E0,0E0,0E0,0E0,0E0],"parents":[2147483647,0,0,1,1,2,2,3,3,4,4,5,5,6,6],"right_children":[2,4,6,8,10,12,14,-1,-1,-1,-1,-1,-1,-1,-1],"split_conditions":[-8.187036E-1,1.1897721E0,4.226847E0,-7.112946E-1,-4.0424088E-1,-4.2945543E-1,-1.0155766E0,-5.14365E-3,-1.1541415E-3,6.38578E-3,-2.9334811E-5,1.410973E-3,1.550211E-4,2.1802555E-3,-7.885239E-3],"split_indices":[22,5,28,16,17,8,12,0,0,0,0,0,0,0,0],"split_type":[0,0,0,0,0,0,0,0,0,0,0,0,0,0,0],"sum_hessian":[2.8462185E3,8.019007E2,2.0443176E3,7.2316437E2,7.873636E1,2.0253702E3,1.8947495E1,3.3094437E1,6.900699E2,1.8713295E1,6.002306E1,5.0287415E2,1.5224961E3,5.620989E0,1.3326506E1],"tree_param":{"num_deleted":"0","num_feature":"35","num_nodes":"15","size_leaf_vector":"1"}},{"base_weights":[-1.103838E-5,-1.00913376E-1,4.2622104E-2,-2.890895E-1,-5.4836087E-2,4.4655353E-1,3.251461E-2,-4.2696316E-3,-7.513691E-4,2.6972225E-4,-1.5769309E-3,9.6541893E-4,8.1438655E-3,2.6993891E-3,1.9645873E-4],"categories":[],"categories_nodes":[],"categories_segments":[],"categories_sizes":[],"default_left":[0,0,0,0,0,0,0,0,0,0,0,0,0,0,0],"id":46,"left_children":[1,3,5,7,9,11,13,-1,-1,-1,-1,-1,-1,-1,-1],"loss_changes":[1.2252182E1,7.3192196E0,8.159921E0,4.8695574E0,5.7328835E0,6.2040443E0,5.966069E0,0E0,0E0,0E0,0E0,0E0,0E0,0E0,0E0],"parents":[2147483647,0,0,1,1,2,2,3,3,4,4,5,5,6,6],"right_children":[2,4,6,8,10,12,14,-1,-1,-1,-1,-1,-1,-1,-1],"split_conditions":[-8.140509E-1,-5.114052E-1,-6.453094E-1,-8.2733375E-1,-8.2617635E-1,-6.145487E-1,-8.406354E-1,-4.2696316E-3,-7.513691E-4,2.6972225E-4,-1.5769309E-3,9.6541893E-4,8.1438655E-3,2.6993891E-3,1.9645873E-4],"split_indices":[20,32,16,27,3,5,31,0,0,0,0,0,0,0,0],"split_type":[0,0,0,0,0,0,0,0,0,0,0,0,0,0,0],"sum_hessian":[2.846163E3,8.44966E2,2.0011973E3,1.6516612E2,6.7979987E2,4.7798992E1,1.9533982E3,9.983539E1,6.5330734E1,3.7905362E2,3.0074622E2,2.5139734E1,2.2659258E1,9.940627E1,1.853992E3],"tree_param":{"num_deleted":"0","num_feature":"35","num_nodes":"15","size_leaf_vector":"1"}},{"base_weights":[-8.816337E-6,-1.0369833E-1,4.0691916E-2,-1.3197057E-1,1.5435466E-1,5.3397286E-1,3.502642E-2,-1.0699045E-3,-4.193986E-3,6.3348743E-3,-2.9331599E-5,1.3998795E-3,1.0427684E-2,2.5127758E-4,3.2024565E-3],"categories":[],"categories_nodes":[],"categories_segments":[],"categories_sizes":[],"default_left":[0,0,0,0,0,0,0,0,0,0,0,0,0,0,0],"id":47,"left_children":[1,3,5,7,9,11,13,-1,-1,-1,-1,-1,-1,-1,-1],"loss_changes":[1.201967E1,5.877555E0,5.6972017E0,5.1540804E0,6.010678E0,4.4953804E0,5.7038174E0,0E0,0E0,0E0,0E0,0E0,0E0,0E0,0E0],"parents":[2147483647,0,0,1,1,2,2,3,3,4,4,5,5,6,6],"right_children":[2,4,6,8,10,12,14,-1,-1,-1,-1,-1,-1,-1,-1],"split_conditions":[-8.187036E-1,1.1897721E0,-1.1050117E0,-1.5525886E-1,-4.0424088E-1,2.278924E-1,2.401627E0,-1.0699045E-3,-4.193986E-3,6.3348743E-3,-2.9331599E-5,1.3998795E-3,1.0427684E-2,2.5127758E-4,3.2024565E-3],"split_indices":[22,5,15,10,17,16,11,0,0,0,0,0,0,0,0],"split_type":[0,0,0,0,0,0,0,0,0,0,0,0,0,0,0],"sum_hessian":[2.8461016E3,8.0182306E2,2.0442786E3,7.2309E2,7.873302E1,2.215378E1,2.0221248E3,6.6653436E2,5.6555664E1,1.871018E1,6.002284E1,1.3204238E1,8.949542E0,1.9553516E3,6.677324E1],"tree_param":{"num_deleted":"0","num_feature":"35","num_nodes":"15","size_leaf_vector":"1"}},{"base_weights":[-3.0435206E-6,-1.026646E-1,4.0292766E-2,-3.58119E-1,-7.403056E-2,4.829181E-2,-3.066965E-1,-4.194335E-3,6.813421E-3,-4.639535E-4,-3.8012667E-3,3.8073858E-4,3.827328E-3,-1.1781262E-2,-1.3555023E-3],"categories":[],"categories_nodes":[],"categories_segments":[],"categories_sizes":[],"default_left":[0,0,0,0,0,0,0,0,0,0,0,0,0,0,0],"id":48,"left_children":[1,3,5,7,9,11,13,-1,-1,-1,-1,-1,-1,-1,-1],"loss_changes":[1.1781899E1,5.8456354E0,5.6916046E0,5.426222E0,6.099374E0,6.8201666E0,6.7340117E0,0E0,0E0,0E0,0E0,0E0,0E0,0E0,0E0],"parents":[2147483647,0,0,1,1,2,2,3,3,4,4,5,5,6,6],"right_children":[2,4,6,8,10,12,14,-1,-1,-1,-1,-1,-1,-1,-1],"split_conditions":[-8.187036E-1,-6.004624E-1,1.5872023E0,2.357674E-1,-1.5525886E-1,2.401627E0,3.4556564E-2,-4.194335E-3,6.813421E-3,-4.639535E-4,-3.8012667E-3,3.8073858E-4,3.827328E-3,-1.1781262E-2,-1.3555023E-3],"split_indices":[22,32,17,29,10,11,10,0,0,0,0,0,0,0,0],"split_type":[0,0,0,0,0,0,0,0,0,0,0,0,0,0,0],"sum_hessian":[2.84605E3,8.0178815E2,2.0442618E3,7.965457E1,7.2213354E2,1.9990393E3,4.5222458E1,7.578098E1,3.873592E0,6.633922E2,5.8741337E1,1.9408556E3,5.818382E1,6.4577317E0,3.8764725E1],"tree_param":{"num_deleted":"0","num_feature":"35","num_nodes":"15","size_leaf_vector":"1"}},{"base_weights":[-6.767345E-6,-1.2926339E-1,3.146085E-2,-6.309762E-2,-5.032281E-1,3.6462557E-2,-5.257014E-1,-4.16268E-3,1.1352909E-4,-7.1425117E-3,-3.903338E-4,4.800467E-3,3.0560413E-4,1.3875698E-3,-8.029016E-3],"categories":[],"categories_nodes":[],"categories_segments":[],"categories_sizes":[],"default_left":[0,0,0,0,0,0,0,0,0,0,0,0,0,0,0],"id":49,"left_children":[1,3,5,7,9,11,13,-1,-1,-1,-1,-1,-1,-1,-1],"loss_changes":[1.1583932E1,1.37652855E1,6.4019613E0,1.2492065E1,8.169224E0,5.9309072E0,3.8767772E0,0E0,0E0,0E0,0E0,0E0,0E0,0E0,0E0],"parents":[2147483647,0,0,1,1,2,2,3,3,4,4,5,5,6,6],"right_children":[2,4,6,8,10,12,14,-1,-1,-1,-1,-1,-1,-1,-1],"split_conditions":[-8.247672E-1,-8.2617635E-1,4.226847E0,-5.424854E-1,-8.25293E-1,-8.2558364E-1,-1.0155766E0,-4.16268E-3,1.1352909E-4,-7.1425117E-3,-3.903338E-4,4.800467E-3,3.0560413E-4,1.3875698E-3,-8.029016E-3],"split_indices":[14,3,28,31,14,23,12,0,0,0,0,0,0,0,0],"split_type":[0,0,0,0,0,0,0,0,0,0,0,0,0,0,0],"sum_hessian":[2.845996E3,5.565989E2,2.2893972E3,4.7391718E2,8.268167E1,2.2699543E3,1.9443073E1,8.1711555E1,3.9220563E2,5.6471172E1,2.6210497E1,2.8751595E1,2.2412026E3,5.8705645E0,1.357251E1],"tree_param":{"num_deleted":"0","num_feature":"35","num_nodes":"15","size_leaf_vector":"1"}},{"base_weights":[-1.12867865E-5,-9.741374E-2,4.1138127E-2,-2.2288644E-1,-3.0075993E-2,4.4184524E-1,3.1115115E-2,-9.82918E-3,-2.0195711E-3,3.105931E-4,-2.7252804E-3,9.510715E-4,8.064714E-3,2.6546305E-3,1.8414423E-4],"categories":[],"categories_nodes":[],"categories_segments":[],"categories_sizes":[],"default_left":[0,0,0,0,0,0,0,0,0,0,0,0,0,0,0],"id":50,"left_children":[1,3,5,7,9,11,13,-1,-1,-1,-1,-1,-1,-1,-1],"loss_changes":[1.141477E1,7.139786E0,8.02737E0,4.4979515E0,8.184309E0,6.090788E0,5.811982E0,0E0,0E0,0E0,0E0,0E0,0E0,0E0,0E0],"parents":[2147483647,0,0,1,1,2,2,3,3,4,4,5,5,6,6],"right_children":[2,4,6,8,10,12,14,-1,-1,-1,-1,-1,-1,-1,-1],"split_conditions":[-8.140509E-1,-3.7786973E-1,-6.453094E-1,-7.534944E-1,-6.868134E-1,-6.145487E-1,-8.406354E-1,-9.82918E-3,-2.0195711E-3,3.105931E-4,-2.7252804E-3,9.510715E-4,8.064714E-3,2.6546305E-3,1.8414423E-4],"split_indices":[20,32,16,31,16,5,31,0,0,0,0,0,0,0,0],"split_type":[0,0,0,0,0,0,0,0,0,0,0,0,0,0,0],"sum_hessian":[2.8459585E3,8.448335E2,2.001125E3,2.9424564E2,5.505878E2,4.778192E1,1.9533431E3,6.653824E0,2.8759183E2,4.404088E2,1.1017904E2,2.5137999E1,2.2643925E1,9.939763E1,1.8539454E3],"tree_param":{"num_deleted":"0","num_feature":"35","num_nodes":"15","size_leaf_vector":"1"}},{"base_weights":[-1.2108145E-5,-1.2712501E-1,3.0930787E-2,-6.1646275E-2,-4.9727175E-1,3.588685E-2,-5.212515E-1,-5.159807E-3,-4.4579578E-5,-7.0620053E-3,-3.7834924E-4,1.0446737E-4,1.3777622E-3,1.3762332E-3,-7.962188E-3],"categories":[],"categories_nodes":[],"categories_segments":[],"categories_sizes":[],"default_left":[0,0,0,0,0,0,0,0,0,0,0,0,0,0,0],"id":51,"left_children":[1,3,5,7,9,11,13,-1,-1,-1,-1,-1,-1,-1,-1],"loss_changes":[1.1201427E1,1.3482212E1,6.286596E0,1.2336193E1,8.003927E0,5.884942E0,3.8123813E0,0E0,0E0,0E0,0E0,0E0,0E0,0E0,0E0],"parents":[2147483647,0,0,1,1,2,2,3,3,4,4,5,5,6,6],"right_children":[2,4,6,8,10,12,14,-1,-1,-1,-1,-1,-1,-1,-1],"split_conditions":[-8.247672E-1,-8.2617635E-1,4.226847E0,-6.00371E-1,-8.25293E-1,1.4136373E0,-1.0155766E0,-5.159807E-3,-4.4579578E-5,-7.0620053E-3,-3.7834924E-4,1.0446737E-4,1.3777622E-3,1.3762332E-3,-7.962188E-3],"split_indices":[14,3,28,28,14,33,12,0,0,0,0,0,0,0,0],"split_type":[0,0,0,0,0,0,0,0,0,0,0,0,0,0,0],"sum_hessian":[2.8458877E3,5.565365E2,2.289351E3,4.7387485E2,8.266164E1,2.2699128E3,1.9438389E1,5.2082363E1,4.217925E2,5.645269E1,2.6208948E1,1.8172722E3,4.5264062E2,5.870655E0,1.3567734E1],"tree_param":{"num_deleted":"0","num_feature":"35","num_nodes":"15","size_leaf_vector":"1"}},{"base_weights":[-1.824498E-5,-9.577562E-2,4.0429488E-2,-8.381531E-2,-9.652244E-1,5.102371E-1,3.1602986E-2,-2.6870563E-3,-3.9401828E-4,-1.2727735E-2,4.9924157E-3,9.656027E-3,1.8198407E-3,4.541329E-4,-2.1953573E-3],"categories":[],"categories_nodes":[],"categories_segments":[],"categories_sizes":[],"default_left":[0,0,0,0,0,0,0,0,0,0,0,0,0,0,0],"id":52,"left_children":[1,3,5,7,9,11,13,-1,-1,-1,-1,-1,-1,-1,-1],"loss_changes":[1.1030187E1,8.71345E0,8.286282E0,6.848753E0,5.7612276E0,5.3332644E0,6.8296556E0,0E0,0E0,0E0,0E0,0E0,0E0,0E0,0E0],"parents":[2147483647,0,0,1,1,2,2,3,3,4,4,5,5,6,6],"right_children":[2,4,6,8,10,12,14,-1,-1,-1,-1,-1,-1,-1,-1],"split_conditions":[-8.1568336E-1,-8.1616455E-1,-7.996907E-1,-5.114052E-1,-3.7119515E-2,-1.9977558E-1,1.099402E0,-2.6870563E-3,-3.9401828E-4,-1.2727735E-2,4.9924157E-3,9.656027E-3,1.8198407E-3,4.541329E-4,-2.1953573E-3],"split_indices":[14,14,13,32,5,5,15,0,0,0,0,0,0,0,0],"split_type":[0,0,0,0,0,0,0,0,0,0,0,0,0,0,0],"sum_hessian":[2.8458462E3,8.447017E2,2.0011443E3,8.3432104E2,1.0380687E1,3.5855553E1,1.9652888E3,1.6062013E2,6.737009E2,8.687203E0,1.6934834E0,1.4206329E1,2.1649225E1,1.8636257E3,1.0166302E2],"tree_param":{"num_deleted":"0","num_feature":"35","num_nodes":"15","size_leaf_vector":"1"}},{"base_weights":[-1.8421357E-5,-9.851753E-2,3.8637526E-2,-1.2645994E-1,1.5642802E-1,4.6564344E-2,-3.0518684E-1,-1.0371391E-3,-4.380382E-3,-2.5503538E-3,3.3629362E-3,3.6451567E-4,3.7764467E-3,-1.1692718E-2,-1.3549324E-3],"categories":[],"categories_nodes":[],"categories_segments":[],"categories_sizes":[],"default_left":[0,0,0,0,0,0,0,0,0,0,0,0,0,0,0],"id":53,"left_children":[1,3,5,7,9,11,13,-1,-1,-1,-1,-1,-1,-1,-1],"loss_changes":[1.0843162E1,5.737503E0,5.5881658E0,5.0849447E0,5.986179E0,6.6823235E0,6.6189036E0,0E0,0E0,0E0,0E0,0E0,0E0,0E0,0E0],"parents":[2147483647,0,0,1,1,2,2,3,3,4,4,5,5,6,6],"right_children":[2,4,6,8,10,12,14,-1,-1,-1,-1,-1,-1,-1,-1],"split_conditions":[-8.187036E-1,1.1897721E0,1.5872023E0,8.9118207E-1,-2.5299394E-1,2.401627E0,3.4556564E-2,-1.0371391E-3,-4.380382E-3,-2.5503538E-3,3.3629362E-3,3.6451567E-4,3.7764467E-3,-1.1692718E-2,-1.3549324E-3],"split_indices":[22,5,17,5,32,11,10,0,0,0,0,0,0,0,0],"split_type":[0,0,0,0,0,0,0,0,0,0,0,0,0,0,0],"sum_hessian":[2.845786E3,8.016232E2,2.0441625E3,7.2289667E2,7.8726555E1,1.9989418E3,4.5220737E1,6.7495605E2,4.7940666E1,2.381928E1,5.4907276E1,1.9407715E3,5.8170353E1,6.456015E0,3.876472E1],"tree_param":{"num_deleted":"0","num_feature":"35","num_nodes":"15","size_leaf_vector":"1"}},{"base_weights":[-2.2998416E-5,-1.24121755E-1,3.0182973E-2,-5.925984E-2,-4.9085957E-1,3.5089824E-2,-5.1660895E-1,-5.0849454E-3,-2.7365004E-5,-6.977988E-3,-3.5989832E-4,4.7753365E-3,2.9202888E-4,1.3731325E-3,-7.896512E-3],"categories":[],"categories_nodes":[],"categories_segments":[],"categories_sizes":[],"default_left":[0,0,0,0,0,0,0,0,0,0,0,0,0,0,0],"id":54,"left_children":[1,3,5,7,9,11,13,-1,-1,-1,-1,-1,-1,-1,-1],"loss_changes":[1.0674785E1,1.3231351E1,6.1629887E0,1.205534E1,7.8478546E0,5.9007683E0,3.7567897E0,0E0,0E0,0E0,0E0,0E0,0E0,0E0,0E0],"parents":[2147483647,0,0,1,1,2,2,3,3,4,4,5,5,6,6],"right_children":[2,4,6,8,10,12,14,-1,-1,-1,-1,-1,-1,-1,-1],"split_conditions":[-8.247672E-1,-8.2617635E-1,4.226847E0,-6.00371E-1,-8.25293E-1,-8.2558364E-1,-1.0155766E0,-5.0849454E-3,-2.7365004E-5,-6.977988E-3,-3.5989832E-4,4.7753365E-3,2.9202888E-4,1.3731325E-3,-7.896512E-3],"split_indices":[14,3,28,28,14,23,12,0,0,0,0,0,0,0,0],"split_type":[0,0,0,0,0,0,0,0,0,0,0,0,0,0,0],"sum_hessian":[2.8457312E3,5.564584E2,2.289273E3,4.7381943E2,8.263897E1,2.2698394E3,1.9433458E1,5.206024E1,4.217592E2,5.6431747E1,2.6207224E1,2.875277E1,2.2410867E3,5.87065E0,1.3562809E1],"tree_param":{"num_deleted":"0","num_feature":"35","num_nodes":"15","size_leaf_vector":"1"}},{"base_weights":[-2.7750139E-5,-9.694862E-2,3.8006634E-2,-1.2462985E-1,1.5558994E-1,5.259439E-1,3.2404512E-2,-1.6759891E-3,3.8720577E-4,6.334248E-3,-1.2849495E-5,1.3562894E-3,1.03048105E-2,2.279718E-4,3.0936934E-3],"categories":[],"categories_nodes":[],"categories_segments":[],"categories_sizes":[],"default_left":[0,0,0,0,0,0,0,0,0,0,0,0,0,0,0],"id":55,"left_children":[1,3,5,7,9,11,13,-1,-1,-1,-1,-1,-1,-1,-1],"loss_changes":[1.04975195E1,5.629773E0,5.5732813E0,5.087124E0,5.9770365E0,4.4188166E0,5.375881E0,0E0,0E0,0E0,0E0,0E0,0E0,0E0,0E0],"parents":[2147483647,0,0,1,1,2,2,3,3,4,4,5,5,6,6],"right_children":[2,4,6,8,10,12,14,-1,-1,-1,-1,-1,-1,-1,-1],"split_conditions":[-8.187036E-1,1.1897721E0,-1.1050117E0,1.680106E-1,-4.0424088E-1,2.278924E-1,2.401627E0,-1.6759891E-3,3.8720577E-4,6.334248E-3,-1.2849495E-5,1.3562894E-3,1.03048105E-2,2.279718E-4,3.0936934E-3],"split_indices":[22,5,15,32,17,16,11,0,0,0,0,0,0,0,0],"split_type":[0,0,0,0,0,0,0,0,0,0,0,0,0,0,0],"sum_hessian":[2.845692E3,8.015636E2,2.0441282E3,7.2283844E2,7.872518E1,2.2148413E1,2.0219799E3,5.722761E2,1.5056235E2,1.8706903E1,6.001828E1,1.3203147E1,8.945265E0,1.9552389E3,6.674086E1],"tree_param":{"num_deleted":"0","num_feature":"35","num_nodes":"15","size_leaf_vector":"1"}},{"base_weights":[-2.0425578E-5,-1.2209732E-1,2.9690683E-2,-5.783516E-2,-4.855135E-1,3.455125E-2,-5.120593E-1,-4.0386347E-3,1.5052901E-4,-6.906204E-3,-3.482777E-4,4.741596E-3,2.870159E-4,1.3601168E-3,-7.827547E-3],"categories":[],"categories_nodes":[],"categories_segments":[],"categories_sizes":[],"default_left":[0,0,0,0,0,0,0,0,0,0,0,0,0,0,0],"id":56,"left_children":[1,3,5,7,9,11,13,-1,-1,-1,-1,-1,-1,-1,-1],"loss_changes":[1.0328477E1,1.298934E1,6.0483694E0,1.1980653E1,7.7055225E0,5.8259087E0,3.6902218E0,0E0,0E0,0E0,0E0,0E0,0E0,0E0,0E0],"parents":[2147483647,0,0,1,1,2,2,3,3,4,4,5,5,6,6],"right_children":[2,4,6,8,10,12,14,-1,-1,-1,-1,-1,-1,-1,-1],"split_conditions":[-8.247672E-1,-8.2617635E-1,4.226847E0,-5.424854E-1,-8.25293E-1,-8.2558364E-1,-1.0155766E0,-4.0386347E-3,1.5052901E-4,-6.906204E-3,-3.482777E-4,4.741596E-3,2.870159E-4,1.3601168E-3,-7.827547E-3],"split_indices":[14,3,28,31,14,23,12,0,0,0,0,0,0,0,0],"split_type":[0,0,0,0,0,0,0,0,0,0,0,0,0,0,0],"sum_hessian":[2.845633E3,5.563979E2,2.289235E3,4.7377954E2,8.261835E1,2.2698066E3,1.9428436E1,8.164374E1,3.921358E2,5.6412613E1,2.6205736E1,2.875533E1,2.2410513E3,5.870778E0,1.3557658E1],"tree_param":{"num_deleted":"0","num_feature":"35","num_nodes":"15","size_leaf_vector":"1"}},{"base_weights":[-2.4725445E-5,-9.196061E-2,3.8806535E-2,-1.8179715E-1,-2.094126E-3,4.9592993E-1,3.0743577E-2,-1.2127942E-3,-4.480508E-3,1.3274637E-3,-2.2082992E-3,-1.2682367E-3,7.126364E-3,4.4254007E-4,-1.9164532E-3],"categories":[],"categories_nodes":[],"categories_segments":[],"categories_sizes":[],"default_left":[0,0,0,0,0,0,0,0,0,0,0,0,0,0,0],"id":57,"left_children":[1,3,5,7,9,11,13,-1,-1,-1,-1,-1,-1,-1,-1],"loss_changes":[1.016585E1,6.826318E0,7.3636513E0,6.7591352E0,1.252718E1,4.764409E0,5.9225693E0,0E0,0E0,0E0,0E0,0E0,0E0,0E0,0E0],"parents":[2147483647,0,0,1,1,2,2,3,3,4,4,5,5,6,6],"right_children":[2,4,6,8,10,12,14,-1,-1,-1,-1,-1,-1,-1,-1],"split_conditions":[-8.1381726E-1,-2.427457E-1,-8.0192417E-1,-6.952431E-1,7.739444E-1,-4.5343943E-2,1.0300868E0,-1.2127942E-3,-4.480508E-3,1.3274637E-3,-2.2082992E-3,-1.2682367E-3,7.126364E-3,4.4254007E-4,-1.9164532E-3],"split_indices":[1,32,20,16,15,28,15,0,0,0,0,0,0,0,0],"split_type":[0,0,0,0,0,0,0,0,0,0,0,0,0,0,0],"sum_hessian":[2.8455881E3,8.4459015E2,2.000998E3,4.2185388E2,4.2273627E2,3.363404E1,1.967364E3,3.4491293E2,7.694095E1,2.61764E2,1.6097226E2,8.789696E0,2.4844345E1,1.8554442E3,1.1191978E2],"tree_param":{"num_deleted":"0","num_feature":"35","num_nodes":"15","size_leaf_vector":"1"}},{"base_weights":[-2.524648E-5,-1.2004529E-1,2.918276E-2,-5.6448318E-2,-4.7978464E-1,3.3993766E-2,-5.071749E-1,-5.001272E-3,-6.5263307E-6,-6.8285945E-3,-3.3746884E-4,8.814985E-5,1.3484098E-3,1.360356E-3,-7.7601443E-3],"categories":[],"categories_nodes":[],"categories_segments":[],"categories_sizes":[],"default_left":[0,0,0,0,0,0,0,0,0,0,0,0,0,0,0],"id":58,"left_children":[1,3,5,7,9,11,13,-1,-1,-1,-1,-1,-1,-1,-1],"loss_changes":[9.982135E0,1.2723899E1,5.9268866E0,1.1752139E1,7.5488663E0,5.764762E0,3.6370592E0,0E0,0E0,0E0,0E0,0E0,0E0,0E0,0E0],"parents":[2147483647,0,0,1,1,2,2,3,3,4,4,5,5,6,6],"right_children":[2,4,6,8,10,12,14,-1,-1,-1,-1,-1,-1,-1,-1],"split_conditions":[-8.247672E-1,-8.2617635E-1,4.226847E0,-6.00371E-1,-8.25293E-1,1.4136373E0,-1.0155766E0,-5.001272E-3,-6.5263307E-6,-6.8285945E-3,-3.3746884E-4,8.814985E-5,1.3484098E-3,1.360356E-3,-7.7601443E-3],"split_indices":[14,3,28,28,14,33,12,0,0,0,0,0,0,0,0],"split_type":[0,0,0,0,0,0,0,0,0,0,0,0,0,0,0],"sum_hessian":[2.8455269E3,5.563387E2,2.2891882E3,4.7374414E2,8.259453E1,2.2697656E3,1.9422651E1,5.2031773E1,4.2171237E2,5.639E1,2.6204533E1,1.8171584E3,4.5260715E2,5.8707085E0,1.3551943E1],"tree_param":{"num_deleted":"0","num_feature":"35","num_nodes":"15","size_leaf_vector":"1"}},{"base_weights":[-3.0996776E-5,-9.378659E-2,3.6756177E-2,-1.2119905E-1,1.5624508E-1,4.462476E-2,-3.0450815E-1,-1.6378734E-3,4.0675607E-4,6.3097444E-3,3.7329935E-6,3.469701E-4,3.697746E-3,-1.1607847E-2,-1.363366E-3],"categories":[],"categories_nodes":[],"categories_segments":[],"categories_sizes":[],"default_left":[0,0,0,0,0,0,0,0,0,0,0,0,0,0,0],"id":59,"left_children":[1,3,5,7,9,11,13,-1,-1,-1,-1,-1,-1,-1,-1],"loss_changes":[9.82096E0,5.5187373E0,5.505108E0,4.9958553E0,5.898736E0,6.4426527E0,6.497232E0,0E0,0E0,0E0,0E0,0E0,0E0,0E0,0E0],"parents":[2147483647,0,0,1,1,2,2,3,3,4,4,5,5,6,6],"right_children":[2,4,6,8,10,12,14,-1,-1,-1,-1,-1,-1,-1,-1],"split_conditions":[-8.187036E-1,1.1897721E0,1.5872023E0,1.680106E-1,-4.0424088E-1,2.401627E0,3.4556564E-2,-1.6378734E-3,4.0675607E-4,6.3097444E-3,3.7329935E-6,3.469701E-4,3.697746E-3,-1.1607847E-2,-1.363366E-3],"split_indices":[22,5,17,32,17,11,10,0,0,0,0,0,0,0,0],"split_type":[0,0,0,0,0,0,0,0,0,0,0,0,0,0,0],"sum_hessian":[2.8454783E3,8.0142395E2,2.0440543E3,7.227048E2,7.8719154E1,1.998836E3,4.5218246E1,5.721608E2,1.5054399E2,1.8704361E1,6.001479E1,1.9406881E3,5.8148014E1,6.454021E0,3.8764225E1],"tree_param":{"num_deleted":"0","num_feature":"35","num_nodes":"15","size_leaf_vector":"1"}},{"base_weights":[-3.2064134E-5,-1.1809165E-1,2.8696116E-2,-5.50817E-2,-4.7458965E-1,4.7065687E-1,2.2867708E-2,-3.9649564E-3,1.6799173E-4,-6.7588417E-3,-3.2636145E-4,-4.7426648E-3,9.796794E-3,5.1994734E-3,1.7719963E-4],"categories":[],"categories_nodes":[],"categories_segments":[],"categories_sizes":[],"default_left":[0,0,0,0,0,0,0,0,0,0,0,0,0,0,0],"id":60,"left_children":[1,3,5,7,9,11,13,-1,-1,-1,-1,-1,-1,-1,-1],"loss_changes":[9.657394E0,1.2491863E1,5.8884745E0,1.165641E1,7.4126587E0,1.4777528E1,5.777301E0,0E0,0E0,0E0,0E0,0E0,0E0,0E0,0E0],"parents":[2147483647,0,0,1,1,2,2,3,3,4,4,5,5,6,6],"right_children":[2,4,6,8,10,12,14,-1,-1,-1,-1,-1,-1,-1,-1],"split_conditions":[-8.247672E-1,-8.2617635E-1,-8.2558364E-1,-5.424854E-1,-8.25293E-1,-4.1472918E-1,-1.1050117E0,-3.9649564E-3,1.6799173E-4,-6.7588417E-3,-3.2636145E-4,-4.7426648E-3,9.796794E-3,5.1994734E-3,1.7719963E-4],"split_indices":[14,3,23,31,14,15,15,0,0,0,0,0,0,0,0],"split_type":[0,0,0,0,0,0,0,0,0,0,0,0,0,0,0],"sum_hessian":[2.8454146E3,5.5627405E2,2.2891406E3,4.7370297E2,8.257107E1,2.8757328E1,2.2603833E3,8.1601715E1,3.9210126E2,5.6368057E1,2.6203014E1,1.0091768E1,1.866556E1,2.21435E1,2.2382397E3],"tree_param":{"num_deleted":"0","num_feature":"35","num_nodes":"15","size_leaf_vector":"1"}},{"base_weights":[-3.193847E-5,-8.898082E-2,3.752872E-2,-7.704335E-2,-9.5726424E-1,4.401743E-1,2.7403869E-2,-3.4385817E-3,-4.7634737E-4,-1.2618593E-2,4.936856E-3,8.128437E-3,1.0759055E-3,3.2435812E-4,-5.4844734E-3],"categories":[],"categories_nodes":[],"categories_segments":[],"categories_sizes":[],"default_left":[0,0,0,0,0,0,0,0,0,0,0,0,0,0,0],"id":61,"left_children":[1,3,5,7,9,11,13,-1,-1,-1,-1,-1,-1,-1,-1],"loss_changes":[9.513E0,8.688736E0,8.149489E0,6.5356236E0,5.651263E0,5.990794E0,5.6796427E0,0E0,0E0,0E0,0E0,0E0,0E0,0E0,0E0],"parents":[2147483647,0,0,1,1,2,2,3,3,4,4,5,5,6,6],"right_children":[2,4,6,8,10,12,14,-1,-1,-1,-1,-1,-1,-1,-1],"split_conditions":[-8.1568336E-1,-8.1616455E-1,-6.453094E-1,-6.004624E-1,-3.7119515E-2,2.8449664E-1,4.226847E0,-3.4385817E-3,-4.7634737E-4,-1.2618593E-2,4.936856E-3,8.128437E-3,1.0759055E-3,3.2435812E-4,-5.4844734E-3],"split_indices":[14,14,16,32,5,29,28,0,0,0,0,0,0,0,0],"split_type":[0,0,0,0,0,0,0,0,0,0,0,0,0,0,0],"sum_hessian":[2.84537E3,8.443834E2,2.0009867E3,8.34006E2,1.0377477E1,4.8040363E1,1.9529464E3,8.17373E1,7.522687E2,8.684648E0,1.6928291E0,2.197393E1,2.6066433E1,1.9369644E3,1.5982039E1],"tree_param":{"num_deleted":"0","num_feature":"35","num_nodes":"15","size_leaf_vector":"1"}},{"base_weights":[-3.4269666E-5,-1.16172776E-1,2.822378E-2,-5.3745665E-2,-4.6945772E-1,4.6684155E-1,2.24391E-2,-4.9169594E-3,1.2981108E-5,-6.688521E-3,-3.186373E-4,-4.6938653E-3,9.709932E-3,5.1474604E-3,1.7341609E-4],"categories":[],"categories_nodes":[],"categories_segments":[],"categories_sizes":[],"default_left":[0,0,0,0,0,0,0,0,0,0,0,0,0,0,0],"id":62,"left_children":[1,3,5,7,9,11,13,-1,-1,-1,-1,-1,-1,-1,-1],"loss_changes":[9.344436E0,1.2263822E1,5.800111E0,1.1443114E1,7.2684517E0,1.4502131E1,5.6659727E0,0E0,0E0,0E0,0E0,0E0,0E0,0E0,0E0],"parents":[2147483647,0,0,1,1,2,2,3,3,4,4,5,5,6,6],"right_children":[2,4,6,8,10,12,14,-1,-1,-1,-1,-1,-1,-1,-1],"split_conditions":[-8.247672E-1,-8.2617635E-1,-8.2558364E-1,-6.00371E-1,-8.25293E-1,-4.1472918E-1,-1.1050117E0,-4.9169594E-3,1.2981108E-5,-6.688521E-3,-3.186373E-4,-4.6938653E-3,9.709932E-3,5.1474604E-3,1.7341609E-4],"split_indices":[14,3,23,28,14,15,15,0,0,0,0,0,0,0,0],"split_type":[0,0,0,0,0,0,0,0,0,0,0,0,0,0,0],"sum_hessian":[2.8453105E3,5.562114E2,2.289099E3,4.7366476E2,8.254666E1,2.8759182E1,2.26034E3,5.1999905E1,4.2166486E2,5.63443E1,2.620236E1,1.0090224E1,1.8668959E1,2.2139753E1,2.2382002E3],"tree_param":{"num_deleted":"0","num_feature":"35","num_nodes":"15","size_leaf_vector":"1"}},{"base_weights":[-3.4573037E-5,-9.09223E-2,3.5622112E-2,-1.1806841E-1,1.5662882E-1,4.3416645E-2,-3.0242097E-1,-9.5726043E-4,-4.243413E-3,-2.5128657E-3,3.3494073E-3,3.3583105E-4,3.655549E-3,-1.1517088E-2,-1.3566561E-3],"categories":[],"categories_nodes":[],"categories_segments":[],"categories_sizes":[],"default_left":[0,0,0,0,0,0,0,0,0,0,0,0,0,0,0],"id":63,"left_children":[1,3,5,7,9,11,13,-1,-1,-1,-1,-1,-1,-1,-1],"loss_changes":[9.227292E0,5.4098525E0,5.4014406E0,4.910652E0,5.882159E0,6.322519E0,6.388975E0,0E0,0E0,0E0,0E0,0E0,0E0,0E0,0E0],"parents":[2147483647,0,0,1,1,2,2,3,3,4,4,5,5,6,6],"right_children":[2,4,6,8,10,12,14,-1,-1,-1,-1,-1,-1,-1,-1],"split_conditions":[-8.187036E-1,1.1897721E0,1.5872023E0,8.9118207E-1,-2.5299394E-1,2.401627E0,3.4556564E-2,-9.5726043E-4,-4.243413E-3,-2.5128657E-3,3.3494073E-3,3.3583105E-4,3.655549E-3,-1.1517088E-2,-1.3566561E-3],"split_indices":[22,5,17,5,32,11,10,0,0,0,0,0,0,0,0],"split_type":[0,0,0,0,0,0,0,0,0,0,0,0,0,0,0],"sum_hessian":[2.8452666E3,8.0128E2,2.0439866E3,7.225674E2,7.8712654E1,1.9987709E3,4.5215714E1,6.746637E2,4.7903625E1,2.3817432E1,5.489522E1,1.9406356E3,5.8135296E1,6.451506E0,3.876421E1],"tree_param":{"num_deleted":"0","num_feature":"35","num_nodes":"15","size_leaf_vector":"1"}},{"base_weights":[-3.885568E-5,-8.677255E-2,3.6586568E-2,-1.7435253E-1,8.069067E-4,4.8857102E-1,2.8619733E-2,-1.1392185E-3,-4.402925E-3,1.3341733E-3,-2.1437902E-3,-1.2898555E-3,7.0371353E-3,4.198544E-4,-1.9136454E-3],"categories":[],"categories_nodes":[],"categories_segments":[],"categories_sizes":[],"default_left":[0,0,0,0,0,0,0,0,0,0,0,0,0,0,0],"id":64,"left_children":[1,3,5,7,9,11,13,-1,-1,-1,-1,-1,-1,-1,-1],"loss_changes":[9.044604E0,6.484058E0,7.194521E0,6.7425814E0,1.2118281E1,4.6894464E0,5.795197E0,0E0,0E0,0E0,0E0,0E0,0E0,0E0,0E0],"parents":[2147483647,0,0,1,1,2,2,3,3,4,4,5,5,6,6],"right_children":[2,4,6,8,10,12,14,-1,-1,-1,-1,-1,-1,-1,-1],"split_conditions":[-8.1381726E-1,-2.427457E-1,-8.0192417E-1,-6.952431E-1,7.739444E-1,-4.5343943E-2,1.0300868E0,-1.1392185E-3,-4.402925E-3,1.3341733E-3,-2.1437902E-3,-1.2898555E-3,7.0371353E-3,4.198544E-4,-1.9136454E-3],"split_indices":[1,32,20,16,15,28,15,0,0,0,0,0,0,0,0],"split_type":[0,0,0,0,0,0,0,0,0,0,0,0,0,0,0],"sum_hessian":[2.845208E3,8.443381E2,2.00087E3,4.216724E2,4.2266568E2,3.3612247E1,1.9672578E3,3.4475955E2,7.691282E1,2.6174362E2,1.6092206E2,8.787786E0,2.4824461E1,1.855341E3,1.1191686E2],"tree_param":{"num_deleted":"0","num_feature":"35","num_nodes":"15","size_leaf_vector":"1"}},{"base_weights":[-3.9233688E-5,-1.1337215E-1,2.7532721E-2,-5.1610842E-2,-4.630059E-1,4.6345398E-1,2.1783559E-2,-3.877505E-3,1.9116282E-4,-6.6046733E-3,-2.9912358E-4,-4.636626E-3,9.624824E-3,2.651669E-4,-4.9910336E-3],"categories":[],"categories_nodes":[],"categories_segments":[],"categories_sizes":[],"default_left":[0,0,0,0,0,0,0,0,0,0,0,0,0,0,0],"id":65,"left_children":[1,3,5,7,9,11,13,-1,-1,-1,-1,-1,-1,-1,-1],"loss_changes":[8.89678E0,1.2006516E1,5.729115E0,1.1290861E1,7.1222534E0,1.4214754E1,5.588209E0,0E0,0E0,0E0,0E0,0E0,0E0,0E0,0E0],"parents":[2147483647,0,0,1,1,2,2,3,3,4,4,5,5,6,6],"right_children":[2,4,6,8,10,12,14,-1,-1,-1,-1,-1,-1,-1,-1],"split_conditions":[-8.247672E-1,-8.2617635E-1,-8.2558364E-1,-5.424854E-1,-8.25293E-1,-4.1472918E-1,4.226847E0,-3.877505E-3,1.9116282E-4,-6.6046733E-3,-2.9912358E-4,-4.636626E-3,9.624824E-3,2.651669E-4,-4.9910336E-3],"split_indices":[14,3,23,31,14,15,28,0,0,0,0,0,0,0,0],"split_type":[0,0,0,0,0,0,0,0,0,0,0,0,0,0,0],"sum_hessian":[2.8451438E3,5.5612256E2,2.2890212E3,4.7360913E2,8.251341E1,2.875957E1,2.2602617E3,8.155E1,3.9205914E2,5.631333E1,2.620008E1,1.008818E1,1.8671389E1,2.2408489E3,1.9412779E1],"tree_param":{"num_deleted":"0","num_feature":"35","num_nodes":"15","size_leaf_vector":"1"}},{"base_weights":[-4.242166E-5,-8.864379E-2,3.4713466E-2,-1.15520425E-1,1.5640411E-1,4.2439673E-2,-3.0036455E-1,-1.5764623E-3,4.455043E-4,6.3010417E-3,8.803621E-6,3.2703372E-4,3.6146378E-3,-1.1427726E-2,-1.3501083E-3],"categories":[],"categories_nodes":[],"categories_segments":[],"categories_sizes":[],"default_left":[0,0,0,0,0,0,0,0,0,0,0,0,0,0,0],"id":66,"left_children":[1,3,5,7,9,11,13,-1,-1,-1,-1,-1,-1,-1,-1],"loss_changes":[8.767384E0,5.3011904E0,5.306816E0,4.885377E0,5.8718E0,6.1995096E0,6.2829404E0,0E0,0E0,0E0,0E0,0E0,0E0,0E0,0E0],"parents":[2147483647,0,0,1,1,2,2,3,3,4,4,5,5,6,6],"right_children":[2,4,6,8,10,12,14,-1,-1,-1,-1,-1,-1,-1,-1],"split_conditions":[-8.187036E-1,1.1897721E0,1.5872023E0,1.680106E-1,-4.0424088E-1,2.401627E0,3.4556564E-2,-1.5764623E-3,4.455043E-4,6.3010417E-3,8.803621E-6,3.2703372E-4,3.6146378E-3,-1.1427726E-2,-1.3501083E-3],"split_indices":[22,5,17,32,17,11,10,0,0,0,0,0,0,0,0],"split_type":[0,0,0,0,0,0,0,0,0,0,0,0,0,0,0],"sum_hessian":[2.8450906E3,8.01167E2,2.0439236E3,7.224571E2,7.870988E1,1.9987108E3,4.521282E1,5.7195184E2,1.5050528E2,1.87003E1,6.0009575E1,1.9405885E3,5.812233E1,6.4486356E0,3.8764183E1],"tree_param":{"num_deleted":"0","num_feature":"35","num_nodes":"15","size_leaf_vector":"1"}},{"base_weights":[-4.3370248E-5,-1.11531995E-1,2.7076868E-2,-5.033862E-2,-4.5804E-1,4.6018225E-1,2.136489E-2,-4.8261695E-3,3.9579052E-5,-6.5379385E-3,-2.8888648E-4,-4.581432E-3,9.542755E-3,5.0863833E-3,1.632068E-4],"categories":[],"categories_nodes":[],"categories_segments":[],"categories_sizes":[],"default_left":[0,0,0,0,0,0,0,0,0,0,0,0,0,0,0],"id":67,"left_children":[1,3,5,7,9,11,13,-1,-1,-1,-1,-1,-1,-1,-1],"loss_changes":[8.6082535E0,1.1788609E1,5.6553125E0,1.1140479E1,6.9946136E0,1.3940157E1,5.5495634E0,0E0,0E0,0E0,0E0,0E0,0E0,0E0,0E0],"parents":[2147483647,0,0,1,1,2,2,3,3,4,4,5,5,6,6],"right_children":[2,4,6,8,10,12,14,-1,-1,-1,-1,-1,-1,-1,-1],"split_conditions":[-8.247672E-1,-8.2617635E-1,-8.2558364E-1,-6.00371E-1,-8.25293E-1,-4.1472918E-1,-1.1050117E0,-4.8261695E-3,3.9579052E-5,-6.5379385E-3,-2.8888648E-4,-4.581432E-3,9.542755E-3,5.0863833E-3,1.632068E-4],"split_indices":[14,3,23,28,14,15,15,0,0,0,0,0,0,0,0],"split_type":[0,0,0,0,0,0,0,0,0,0,0,0,0,0,0],"sum_hessian":[2.8450244E3,5.560491E2,2.2889753E3,4.7356302E2,8.2486046E1,2.875936E1,2.2602158E3,5.1964268E1,4.2159875E2,5.6287502E1,2.6198544E1,1.0086071E1,1.8673288E1,2.2134916E1,2.238081E3],"tree_param":{"num_deleted":"0","num_feature":"35","num_nodes":"15","size_leaf_vector":"1"}},{"base_weights":[-4.343945E-5,-8.4096566E-2,3.544075E-2,-7.221357E-2,-9.4884175E-1,4.3385714E-1,2.5427172E-2,-3.3378021E-3,-4.3406023E-4,-1.2505548E-2,4.8861406E-3,8.032561E-3,1.0441315E-3,2.6920033E-3,1.3734706E-4],"categories":[],"categories_nodes":[],"categories_segments":[],"categories_sizes":[],"default_left":[0,0,0,0,0,0,0,0,0,0,0,0,0,0,0],"id":68,"left_children":[1,3,5,7,9,11,13,-1,-1,-1,-1,-1,-1,-1,-1],"loss_changes":[8.491263E0,8.615667E0,7.975543E0,6.2753534E0,5.543686E0,5.881425E0,5.5653634E0,0E0,0E0,0E0,0E0,0E0,0E0,0E0,0E0],"parents":[2147483647,0,0,1,1,2,2,3,3,4,4,5,5,6,6],"right_children":[2,4,6,8,10,12,14,-1,-1,-1,-1,-1,-1,-1,-1],"split_conditions":[-8.1568336E-1,-8.1616455E-1,-6.453094E-1,-6.004624E-1,-3.7119515E-2,2.8449664E-1,-8.4257036E-1,-3.3378021E-3,-4.3406023E-4,-1.2505548E-2,4.8861406E-3,8.032561E-3,1.0441315E-3,2.6920033E-3,1.3734706E-4],"split_indices":[14,14,16,32,5,29,31,0,0,0,0,0,0,0,0],"split_type":[0,0,0,0,0,0,0,0,0,0,0,0,0,0,0],"sum_hessian":[2.8449753E3,8.441132E2,2.000862E3,8.337398E2,1.0373428E1,4.8017883E1,1.9528441E3,8.166366E1,7.520761E2,8.681299E0,1.6921289E0,2.195828E1,2.6059603E1,8.837219E1,1.8644719E3],"tree_param":{"num_deleted":"0","num_feature":"35","num_nodes":"15","size_leaf_vector":"1"}},{"base_weights":[-4.2828644E-5,-8.649008E-2,3.386419E-2,-1.130998E-1,1.5608796E-1,4.1515134E-2,-2.9795396E-1,-9.1026525E-4,-4.158256E-3,6.258505E-3,1.8623019E-5,3.1873293E-4,3.5751518E-3,-1.1336502E-2,-1.3398807E-3],"categories":[],"categories_nodes":[],"categories_segments":[],"categories_sizes":[],"default_left":[0,0,0,0,0,0,0,0,0,0,0,0,0,0,0],"id":69,"left_children":[1,3,5,7,9,11,13,-1,-1,-1,-1,-1,-1,-1,-1],"loss_changes":[8.344794E0,5.1948495E0,5.2037153E0,4.7956686E0,5.7733855E0,6.0811996E0,6.1799803E0,0E0,0E0,0E0,0E0,0E0,0E0,0E0,0E0],"parents":[2147483647,0,0,1,1,2,2,3,3,4,4,5,5,6,6],"right_children":[2,4,6,8,10,12,14,-1,-1,-1,-1,-1,-1,-1,-1],"split_conditions":[-8.187036E-1,1.1897721E0,1.5872023E0,8.9118207E-1,-4.0424088E-1,2.401627E0,3.4556564E-2,-9.1026525E-4,-4.158256E-3,6.258505E-3,1.8623019E-5,3.1873293E-4,3.5751518E-3,-1.1336502E-2,-1.3398807E-3],"split_indices":[22,5,17,5,17,11,10,0,0,0,0,0,0,0,0],"split_type":[0,0,0,0,0,0,0,0,0,0,0,0,0,0,0],"sum_hessian":[2.8449182E3,8.010527E2,2.0438656E3,7.223481E2,7.870457E1,1.9986561E3,4.5209415E1,6.744698E2,4.7878304E1,1.8696892E1,6.0007675E1,1.9405468E3,5.8109375E1,6.445295E0,3.8764122E1],"tree_param":{"num_deleted":"0","num_feature":"35","num_nodes":"15","size_leaf_vector":"1"}},{"base_weights":[-4.5098364E-5,-1.0889888E-1,2.6430521E-2,-4.829929E-2,-4.5216134E-1,3.1108769E-2,-4.9532157E-1,-3.7971742E-3,2.1389649E-4,-6.4600897E-3,-2.7442886E-4,6.2094485E-5,1.3084316E-3,1.4308506E-3,-7.6290476E-3],"categories":[],"categories_nodes":[],"categories_segments":[],"categories_sizes":[],"default_left":[0,0,0,0,0,0,0,0,0,0,0,0,0,0,0],"id":70,"left_children":[1,3,5,7,9,11,13,-1,-1,-1,-1,-1,-1,-1,-1],"loss_changes":[8.204549E0,1.1563667E1,5.6047916E0,1.0967308E1,6.8528786E0,5.6375427E0,3.5955386E0,0E0,0E0,0E0,0E0,0E0,0E0,0E0,0E0],"parents":[2147483647,0,0,1,1,2,2,3,3,4,4,5,5,6,6],"right_children":[2,4,6,8,10,12,14,-1,-1,-1,-1,-1,-1,-1,-1],"split_conditions":[-8.247672E-1,-8.2617635E-1,4.226847E0,-5.424854E-1,-8.25293E-1,1.4136373E0,-1.0155766E0,-3.7971742E-3,2.1389649E-4,-6.4600897E-3,-2.7442886E-4,6.2094485E-5,1.3084316E-3,1.4308506E-3,-7.6290476E-3],"split_indices":[14,3,28,31,14,33,12,0,0,0,0,0,0,0,0],"split_type":[0,0,0,0,0,0,0,0,0,0,0,0,0,0,0],"sum_hessian":[2.8448542E3,5.559535E2,2.2889006E3,4.735021E2,8.24514E1,2.269492E3,1.9408833E1,8.1494026E1,3.920081E2,5.625485E1,2.6196554E1,1.8169429E3,4.5254895E2,5.869796E0,1.3539036E1],"tree_param":{"num_deleted":"0","num_feature":"35","num_nodes":"15","size_leaf_vector":"1"}},{"base_weights":[-4.9993647E-5,-8.498414E-2,3.3260792E-2,-5.8668803E-2,-3.275343E-1,5.021503E-1,2.7882678E-2,-1.0827633E-3,1.4423016E-3,-4.5198123E-3,6.21242E-3,1.156604E-3,1.0039787E-2,3.5426195E-4,-2.9556518E-3],"categories":[],"categories_nodes":[],"categories_segments":[],"categories_sizes":[],"default_left":[0,0,0,0,0,0,0,0,0,0,0,0,0,0,0],"id":71,"left_children":[1,3,5,7,9,11,13,-1,-1,-1,-1,-1,-1,-1,-1],"loss_changes":[8.054213E0,5.099589E0,5.1425157E0,7.309902E0,9.522897E0,4.36982E0,4.945713E0,0E0,0E0,0E0,0E0,0E0,0E0,0E0,0E0],"parents":[2147483647,0,0,1,1,2,2,3,3,4,4,5,5,6,6],"right_children":[2,4,6,8,10,12,14,-1,-1,-1,-1,-1,-1,-1,-1],"split_conditions":[-8.187036E-1,-1.575678E-1,-1.1050117E0,1.680106E-1,1.677631E0,2.278924E-1,1.5872023E0,-1.0827633E-3,1.4423016E-3,-4.5198123E-3,6.21242E-3,1.156604E-3,1.0039787E-2,3.5426195E-4,-2.9556518E-3],"split_indices":[22,10,15,32,31,16,17,0,0,0,0,0,0,0,0],"split_type":[0,0,0,0,0,0,0,0,0,0,0,0,0,0,0],"sum_hessian":[2.8447937E3,8.0097003E2,2.0438237E3,7.2369507E2,7.727499E1,2.2129168E1,2.0216946E3,5.8189233E2,1.418027E2,6.877737E1,8.497617E0,1.3196322E1,8.932845E0,1.9764889E3,4.52056E1],"tree_param":{"num_deleted":"0","num_feature":"35","num_nodes":"15","size_leaf_vector":"1"}},{"base_weights":[-4.580753E-5,-1.071233E-1,2.5995115E-2,-4.7161393E-2,-4.4688192E-1,4.576476E-1,2.0302778E-2,-4.738755E-3,6.399775E-5,-6.3896594E-3,-2.6272965E-4,-4.520409E-3,9.468606E-3,8.138561E-4,-1.916613E-4],"categories":[],"categories_nodes":[],"categories_segments":[],"categories_sizes":[],"default_left":[0,0,0,0,0,0,0,0,0,0,0,0,0,0,0],"id":72,"left_children":[1,3,5,7,9,11,13,-1,-1,-1,-1,-1,-1,-1,-1],"loss_changes":[7.937838E0,1.1324114E1,5.6171374E0,1.084708E1,6.7229156E0,1.3671076E1,5.4527783E0,0E0,0E0,0E0,0E0,0E0,0E0,0E0,0E0],"parents":[2147483647,0,0,1,1,2,2,3,3,4,4,5,5,6,6],"right_children":[2,4,6,8,10,12,14,-1,-1,-1,-1,-1,-1,-1,-1],"split_conditions":[-8.247672E-1,-8.2617635E-1,-8.2558364E-1,-6.00371E-1,-8.25293E-1,-4.1472918E-1,-1.4747151E-2,-4.738755E-3,6.399775E-5,-6.3896594E-3,-2.6272965E-4,-4.520409E-3,9.468606E-3,8.138561E-4,-1.916613E-4],"split_indices":[14,3,23,28,14,15,33,0,0,0,0,0,0,0,0],"split_type":[0,0,0,0,0,0,0,0,0,0,0,0,0,0,0],"sum_hessian":[2.8447405E3,5.558854E2,2.2888552E3,4.7346524E2,8.242016E1,2.875758E1,2.2600974E3,5.1926548E1,4.215387E2,5.6224407E1,2.6195753E1,1.008345E1,1.867413E1,8.8672424E2,1.3733733E3],"tree_param":{"num_deleted":"0","num_feature":"35","num_nodes":"15","size_leaf_vector":"1"}},{"base_weights":[-4.7398702E-5,-8.064865E-2,3.3976763E-2,-2.0612709E-1,-2.2479123E-2,4.221966E-1,2.4284087E-2,-1.7780819E-3,-1.031232E-2,2.7376178E-4,-2.5575932E-3,8.3123764E-4,7.7988678E-3,2.5052547E-3,1.2028631E-4],"categories":[],"categories_nodes":[],"categories_segments":[],"categories_sizes":[],"default_left":[0,0,0,0,0,0,0,0,0,0,0,0,0,0,0],"id":73,"left_children":[1,3,5,7,9,11,13,-1,-1,-1,-1,-1,-1,-1,-1],"loss_changes":[7.8067355E0,6.162897E0,7.521962E0,6.067542E0,6.7346354E0,5.841446E0,5.4148593E0,0E0,0E0,0E0,0E0,0E0,0E0,0E0,0E0],"parents":[2147483647,0,0,1,1,2,2,3,3,4,4,5,5,6,6],"right_children":[2,4,6,8,10,12,14,-1,-1,-1,-1,-1,-1,-1,-1],"split_conditions":[-8.140509E-1,-4.0452334E-1,-6.453094E-1,-8.1754553E-1,-6.863399E-1,-6.145487E-1,-8.406354E-1,-1.7780819E-3,-1.031232E-2,2.7376178E-4,-2.5575932E-3,8.3123764E-4,7.7988678E-3,2.5052547E-3,1.2028631E-4],"split_indices":[20,32,16,3,16,5,31,0,0,0,0,0,0,0,0],"split_type":[0,0,0,0,0,0,0,0,0,0,0,0,0,0,0],"sum_hessian":[2.8446912E3,8.439804E2,2.0007107E3,2.6652072E2,5.774597E2,4.7698265E1,1.9530125E3,2.58852E2,7.6687064E0,4.765062E2,1.0095351E2,2.5119036E1,2.257923E1,9.935891E1,1.8536536E3],"tree_param":{"num_deleted":"0","num_feature":"35","num_nodes":"15","size_leaf_vector":"1"}},{"base_weights":[-4.804609E-5,-1.0543239E-1,2.5578279E-2,-4.6099793E-2,-4.4174176E-1,4.5373306E-1,1.9932387E-2,-3.7268416E-3,2.2534747E-4,-6.320094E-3,-2.5350458E-4,-4.4745086E-3,9.382417E-3,2.4578132E-4,-4.9147806E-3],"categories":[],"categories_nodes":[],"categories_segments":[],"categories_sizes":[],"default_left":[0,0,0,0,0,0,0,0,0,0,0,0,0,0,0],"id":74,"left_children":[1,3,5,7,9,11,13,-1,-1,-1,-1,-1,-1,-1,-1],"loss_changes":[7.68761E0,1.1090322E1,5.526138E0,1.0642639E1,6.5903015E0,1.341211E1,5.3840685E0,0E0,0E0,0E0,0E0,0E0,0E0,0E0,0E0],"parents":[2147483647,0,0,1,1,2,2,3,3,4,4,5,5,6,6],"right_children":[2,4,6,8,10,12,14,-1,-1,-1,-1,-1,-1,-1,-1],"split_conditions":[-8.247672E-1,-8.2617635E-1,-8.2558364E-1,-5.424854E-1,-8.25293E-1,-4.1472918E-1,4.226847E0,-3.7268416E-3,2.2534747E-4,-6.320094E-3,-2.5350458E-4,-4.4745086E-3,9.382417E-3,2.4578132E-4,-4.9147806E-3],"split_indices":[14,3,23,31,14,15,28,0,0,0,0,0,0,0,0],"split_type":[0,0,0,0,0,0,0,0,0,0,0,0,0,0,0],"sum_hessian":[2.8446177E3,5.558119E2,2.2888057E3,4.734259E2,8.2385994E1,2.8755741E1,2.26005E3,8.144681E1,3.919791E2,5.6191685E1,2.6194305E1,1.0081215E1,1.8674526E1,2.2406475E3,1.9402504E1],"tree_param":{"num_deleted":"0","num_feature":"35","num_nodes":"15","size_leaf_vector":"1"}},{"base_weights":[-5.1035055E-5,-8.246068E-2,3.226393E-2,-1.08762436E-1,1.5722622E-1,4.9618027E-1,2.6944628E-2,-1.5017008E-3,4.852848E-4,-2.460854E-3,3.335125E-3,1.1324247E-3,9.937919E-3,1.7789766E-4,2.9114464E-3],"categories":[],"categories_nodes":[],"categories_segments":[],"categories_sizes":[],"default_left":[0,0,0,0,0,0,0,0,0,0,0,0,0,0,0],"id":75,"left_children":[1,3,5,7,9,11,13,-1,-1,-1,-1,-1,-1,-1,-1],"loss_changes":[7.5805616E0,5.0718026E0,5.0324965E0,4.7169228E0,5.7481375E0,4.2934823E0,4.886992E0,0E0,0E0,0E0,0E0,0E0,0E0,0E0,0E0],"parents":[2147483647,0,0,1,1,2,2,3,3,4,4,5,5,6,6],"right_children":[2,4,6,8,10,12,14,-1,-1,-1,-1,-1,-1,-1,-1],"split_conditions":[-8.187036E-1,1.1897721E0,-1.1050117E0,1.680106E-1,-2.5299394E-1,2.278924E-1,2.401627E0,-1.5017008E-3,4.852848E-4,-2.460854E-3,3.335125E-3,1.1324247E-3,9.937919E-3,1.7789766E-4,2.9114464E-3],"split_indices":[22,5,15,32,32,16,11,0,0,0,0,0,0,0,0],"split_type":[0,0,0,0,0,0,0,0,0,0,0,0,0,0,0],"sum_hessian":[2.8445562E3,8.00801E2,2.0437551E3,7.2210767E2,7.869338E1,2.212213E1,2.021633E3,5.7166034E2,1.5044731E2,2.381438E1,5.4878998E1,1.3195264E1,8.926865E0,1.9549586E3,6.667442E1],"tree_param":{"num_deleted":"0","num_feature":"35","num_nodes":"15","size_leaf_vector":"1"}},{"base_weights":[-4.5601835E-5,-1.0373863E-1,2.5166461E-2,-4.4939972E-2,-4.371204E-1,4.5052728E-1,1.9557921E-2,-4.6590595E-3,7.866694E-5,-5.649984E-3,1.6442261E-3,-4.421618E-3,9.303013E-3,8.003004E-4,-1.9515553E-4],"categories":[],"categories_nodes":[],"categories_segments":[],"categories_sizes":[],"default_left":[0,0,0,0,0,0,0,0,0,0,0,0,0,0,0],"id":76,"left_children":[1,3,5,7,9,11,13,-1,-1,-1,-1,-1,-1,-1,-1],"loss_changes":[7.44163E0,1.0893692E1,5.4537606E0,1.054903E1,6.5049334E0,1.3154246E1,5.343994E0,0E0,0E0,0E0,0E0,0E0,0E0,0E0,0E0],"parents":[2147483647,0,0,1,1,2,2,3,3,4,4,5,5,6,6],"right_children":[2,4,6,8,10,12,14,-1,-1,-1,-1,-1,-1,-1,-1],"split_conditions":[-8.247672E-1,-8.2617635E-1,-8.2558364E-1,-6.00371E-1,1.2290934E0,-4.1472918E-1,-1.4747151E-2,-4.6590595E-3,7.866694E-5,-5.649984E-3,1.6442261E-3,-4.421618E-3,9.303013E-3,8.003004E-4,-1.9515553E-4],"split_indices":[14,3,23,28,12,15,33,0,0,0,0,0,0,0,0],"split_type":[0,0,0,0,0,0,0,0,0,0,0,0,0,0,0],"sum_hessian":[2.8444941E3,5.557348E2,2.2887595E3,4.733795E2,8.23553E1,2.8753042E1,2.2600063E3,5.189091E1,4.2148856E2,6.796733E1,1.4387968E1,1.007865E1,1.8674393E1,8.866826E2,1.3733237E3],"tree_param":{"num_deleted":"0","num_feature":"35","num_nodes":"15","size_leaf_vector":"1"}},{"base_weights":[-4.6304383E-5,-8.115232E-2,3.1754572E-2,-1.0720191E-1,1.5621138E-1,3.9269865E-2,-2.9416236E-1,3.623252E-3,-1.2088816E-3,6.2478404E-3,2.3905355E-5,2.9802936E-4,3.4968804E-3,-1.12297E-2,-1.3167144E-3],"categories":[],"categories_nodes":[],"categories_segments":[],"categories_sizes":[],"default_left":[0,0,0,0,0,0,0,0,0,0,0,0,0,0,0],"id":77,"left_children":[1,3,5,7,9,11,13,-1,-1,-1,-1,-1,-1,-1,-1],"loss_changes":[7.341667E0,4.973944E0,5.019826E0,4.6900187E0,5.742316E0,5.865589E0,6.0746374E0,0E0,0E0,0E0,0E0,0E0,0E0,0E0,0E0],"parents":[2147483647,0,0,1,1,2,2,3,3,4,4,5,5,6,6],"right_children":[2,4,6,8,10,12,14,-1,-1,-1,-1,-1,-1,-1,-1],"split_conditions":[-8.187036E-1,1.1897721E0,1.5872023E0,-9.58345E-1,-4.0424088E-1,2.401627E0,3.4556564E-2,3.623252E-3,-1.2088816E-3,6.2478404E-3,2.3905355E-5,2.9802936E-4,3.4968804E-3,-1.12297E-2,-1.3167144E-3],"split_indices":[22,5,17,17,17,11,10,0,0,0,0,0,0,0,0],"split_type":[0,0,0,0,0,0,0,0,0,0,0,0,0,0,0],"sum_hessian":[2.844444E3,8.0071704E2,2.0437272E3,7.220263E2,7.869075E1,1.998523E3,4.520426E1,1.9728758E1,7.0229755E2,1.8691254E1,5.99995E1,1.9404407E3,5.8082256E1,6.440847E0,3.8763412E1],"tree_param":{"num_deleted":"0","num_feature":"35","num_nodes":"15","size_leaf_vector":"1"}},{"base_weights":[-4.584907E-5,-1.0207832E-1,2.4759794E-2,-4.3907598E-2,-4.320058E-1,2.9349824E-2,-4.873324E-1,-3.6615191E-3,2.3778343E-4,-6.2086857E-3,-1.9201692E-4,4.519285E-5,1.2881261E-3,1.4530985E-3,-7.5291637E-3],"categories":[],"categories_nodes":[],"categories_segments":[],"categories_sizes":[],"default_left":[0,0,0,0,0,0,0,0,0,0,0,0,0,0,0],"id":78,"left_children":[1,3,5,7,9,11,13,-1,-1,-1,-1,-1,-1,-1,-1],"loss_changes":[7.2041287E0,1.0664595E1,5.3963223E0,1.0354747E1,6.4842424E0,5.606454E0,3.5366492E0,0E0,0E0,0E0,0E0,0E0,0E0,0E0,0E0],"parents":[2147483647,0,0,1,1,2,2,3,3,4,4,5,5,6,6],"right_children":[2,4,6,8,10,12,14,-1,-1,-1,-1,-1,-1,-1,-1],"split_conditions":[-8.247672E-1,-8.2617635E-1,4.226847E0,-5.424854E-1,-8.25293E-1,1.4136373E0,-1.0155766E0,-3.6615191E-3,2.3778343E-4,-6.2086857E-3,-1.9201692E-4,4.519285E-5,1.2881261E-3,1.4530985E-3,-7.5291637E-3],"split_indices":[14,3,28,31,14,33,12,0,0,0,0,0,0,0,0],"split_type":[0,0,0,0,0,0,0,0,0,0,0,0,0,0,0],"sum_hessian":[2.8443794E3,5.556641E2,2.2887153E3,4.7334076E2,8.232336E1,2.2693174E3,1.9397865E1,8.139929E1,3.9194147E2,5.6136307E1,2.6187052E1,1.8168041E3,4.525134E2,5.8693867E0,1.3528479E1],"tree_param":{"num_deleted":"0","num_feature":"35","num_nodes":"15","size_leaf_vector":"1"}},{"base_weights":[-5.0561754E-5,-7.6873794E-2,3.2366667E-2,-6.5041564E-2,-9.385153E-1,4.882908E-1,2.3819078E-2,-3.1910837E-3,-3.7094924E-4,-1.2369663E-2,4.832883E-3,9.360785E-3,1.664978E-3,3.7231084E-4,-2.199845E-3],"categories":[],"categories_nodes":[],